<?xml version="1.0"?>
<opencv_storage>
<opencv_ml_svm>
  <format>3</format>
  <svmType>C_SVC</svmType>
  <kernel>
    <type>LINEAR</type></kernel>
  <C>3.1249999999999994e-09</C>
  <term_criteria><epsilon>5.0000000000000002e-05</epsilon>
    <iterations>5000</iterations></term_criteria>
  <var_count>267</var_count>
  <class_count>2</class_count>
  <class_labels type_id="opencv-matrix">
    <rows>2</rows>
    <cols>1</cols>
    <dt>i</dt>
    <data>
      0 1</data></class_labels>
  <class_weights type_id="opencv-matrix">
    <rows>2</rows>
    <cols>1</cols>
    <dt>f</dt>
    <data>
      6.99999988e-01 3.00000012e-01</data></class_weights>
  <sv_total>1</sv_total>
  <support_vectors>
    <_>
      1.44123078e-05 4.74397837e-07 9.38385074e-06 7.00225564e-06
      6.72233091e-06 1.09710925e-06 -7.04824743e-06 1.06553771e-05
      5.25587393e-06 1.68219594e-06 -1.43208342e-06 -6.02507862e-06
      2.63776201e-06 -1.22804875e-06 -4.15229306e-06 -1.33975354e-05
      3.20847948e-06 1.60758316e-06 -9.99696749e-06 9.61100613e-06
      4.38349525e-06 -1.47900128e-05 3.23931567e-06 -6.19455659e-06
      1.13819569e-05 -1.66893540e-06 -1.07437672e-05 -6.24900804e-06
      6.44523243e-06 1.46767263e-06 -1.91772642e-06 -7.36228731e-06
      1.89225352e-06 -6.12574695e-06 4.99442922e-06 -5.84877171e-07
      1.50786673e-06 4.59033936e-06 -1.16167257e-05 1.35557657e-05
      -4.40634358e-06 9.77559102e-06 -8.25104780e-06 1.33234880e-06
      -2.51589881e-07 -3.51567337e-06 -5.07378672e-06 -1.08205950e-05
      -1.34585734e-05 -4.42180863e-07 1.27125686e-05 -2.95086602e-06
      -1.38568403e-05 -1.00663965e-05 4.78175889e-06 -9.30425267e-06
      2.43134377e-06 8.40057783e-06 5.98282031e-06 -1.37368920e-06
      1.33484800e-05 7.19753280e-06 1.72562250e-05 1.23452455e-05
      -6.15900547e-07 -1.07692376e-05 -6.86767953e-06 1.58386467e-06
      -1.24739199e-05 2.26474531e-05 8.99085353e-06 7.73056945e-06
      -3.80320535e-06 -2.70211490e-06 1.41795936e-05 -1.13436236e-05
      -4.76662262e-06 -9.84458984e-06 6.35347396e-06 -6.10301959e-06
      5.62352352e-06 -2.07481753e-05 -5.76010916e-06 1.93231358e-06
      4.24170139e-06 1.12219391e-06 -5.86078386e-06 2.43164891e-06
      -4.94349649e-07 -1.04978008e-05 -1.05650588e-05 -1.49466205e-05
      3.60274066e-06 1.06818279e-05 -3.63252752e-07 5.21088168e-07
      7.71738868e-08 -4.71885187e-07 9.29022372e-06 1.60656884e-06
      5.14851581e-06 -2.10209191e-06 -1.64833891e-05 -2.02168258e-06
      -5.03031106e-06 4.16763623e-06 8.40220036e-06 8.88938848e-06
      -1.69162229e-06 -1.76524954e-05 2.04154858e-05 -4.31571380e-06
      -6.32795536e-06 -1.18295511e-05 8.34612729e-06 -5.63850062e-06
      1.54864154e-06 4.91332776e-06 1.25204751e-05 -5.00481156e-06
      7.96719996e-06 -3.15681382e-06 -4.36781693e-06 -5.29984345e-06
      7.38651977e-07 3.71847341e-06 1.14674378e-06 1.02428949e-05
      6.81922211e-06 2.43864433e-05 1.88489969e-06 -1.37635270e-05
      -1.29007894e-05 -9.78166827e-06 9.44411113e-06 1.00073576e-05
      3.86044894e-06 2.85947431e-06 3.90333389e-06 -1.63173881e-05
      -5.11356029e-06 7.17096736e-06 -1.25049769e-06 4.80930339e-06
      2.61025639e-06 1.19529677e-05 3.32225750e-06 5.99740088e-06
      4.24813197e-06 -1.51642444e-05 5.07596542e-06 7.80793744e-06
      5.11549615e-06 -6.86946396e-06 1.88257093e-06 7.86979285e-07
      2.99754174e-06 -4.05842775e-06 1.36816770e-05 -8.82055247e-06
      -6.95982317e-06 1.01789738e-05 1.11850850e-05 -2.06359732e-06
      -3.37513575e-06 6.18892273e-06 -6.76857098e-06 -3.64853099e-06
      1.88049114e-06 -7.00066539e-06 -8.04827596e-06 6.00675776e-06
      -1.65700510e-06 2.01233888e-06 -6.91763898e-06 6.64472145e-06
      3.25465493e-07 -1.17725667e-05 2.14769570e-05 2.06939239e-06
      1.16449655e-07 1.07023325e-05 3.36351741e-06 1.99204260e-06
      -1.15673638e-05 -8.35965056e-06 7.99804457e-06 -9.81536414e-06
      7.66799167e-06 -3.10847213e-06 1.16052688e-05 -6.63686387e-06
      3.29124964e-06 1.64016437e-05 -4.15535942e-06 1.34384686e-06
      -5.43350961e-06 -4.30188629e-06 -1.57960039e-05 -9.80241111e-07
      1.68939696e-05 -2.34786671e-06 -5.40052270e-06 -7.90743343e-06
      -1.12733069e-05 3.70355360e-06 -9.63195816e-06 -1.60648057e-07
      1.20010754e-05 1.19609149e-05 -3.51567337e-06 -6.97958114e-07
      -4.45350315e-06 -1.72867544e-06 -6.41926727e-06 -1.61216144e-06
      -7.63783737e-06 2.22242925e-05 -1.00123161e-05 -6.18487775e-06
      -7.28697796e-06 -1.26188937e-07 1.89534001e-06 1.71233514e-05
      -1.20243456e-07 -1.28531747e-06 -8.48834497e-06 -1.27949079e-05
      6.13636848e-06 -1.33571202e-05 1.52795183e-05 1.32390578e-05
      1.33507842e-06 7.35887033e-06 3.16158520e-07 -2.13553585e-06
      4.83241320e-06 -5.45270814e-06 -5.82823020e-07 3.88256967e-06
      6.50582570e-06 3.41893156e-06 -3.63393451e-06 -1.68896264e-07
      -4.70739133e-06 1.27368389e-06 -5.97049211e-06 1.33371799e-07
      -6.37409130e-06 -2.23052957e-05 1.90917331e-06 -4.06499885e-06
      6.22003881e-06 8.87096030e-06 -4.45674277e-06 -4.10268194e-06
      1.68939696e-05 -3.68817950e-06 1.14579807e-05 -7.21121023e-06
      -1.47561041e-05 -1.56448721e-07 -1.35410046e-05 -4.05842775e-06
      -1.06128518e-05 6.48368132e-06 4.44472062e-06</_></support_vectors>
  <uncompressed_sv_total>63</uncompressed_sv_total>
  <uncompressed_support_vectors>
    <_>
      2.88154902e+04 -8.01197412e+03 3.25476392e+03 -4.43087891e+04
      2.47757246e+04 1.79794180e+04 2.47686875e+04 -2.86310059e+04
      7.70838818e+03 2.61347925e+03 4.94658594e+03 1.55939707e+04
      -1.94243574e+04 3.38489414e+04 3.47230615e+03 -2.32136270e+04
      -2.23690566e+04 1.59133525e+04 -4.80271367e+04 3.42971914e+04
      -4.45575156e+04 -2.23703926e+04 2.21666895e+04 -3.29131797e+04
      4.72604570e+04 1.78911113e+04 -3.22042461e+04 2.40093906e+04
      -1.69746002e+02 2.31714531e+04 2.26867441e+04 -3.55831680e+04
      6.42702148e+03 -3.39474878e+03 1.20741738e+04 2.33349062e+04
      2.23702930e+04 3.32757031e+04 -1.80490977e+04 -4.28683711e+04
      2.03008008e+04 -3.29049531e+04 2.23583359e+04 -3.83531211e+04
      2.31455117e+04 2.43191406e+04 -6.83862578e+04 8.15501416e+03
      -2.09137012e+04 -4.86849609e+03 -1.52816514e+04 -5.35727188e+04
      2.57183320e+04 1.42554072e+04 1.82169043e+04 2.04838496e+04
      -2.51959023e+04 -5.82721973e+03 5.85216846e+03 1.82206367e+04
      2.13326289e+04 -1.32542227e+04 -1.06785977e+04 -1.23315283e+04
      5.45629248e+03 2.35532676e+04 -1.38135732e+04 2.57601152e+04
      -2.86691772e+03 -3.95797188e+04 1.31767441e+04 1.28148926e+04
      1.44739502e+04 2.88819082e+04 -2.00456641e+04 3.48365576e+03
      -6.30256328e+04 2.18698574e+04 3.25058770e+04 -1.20123701e+04
      -1.35292637e+04 -1.51060645e+04 2.75762891e+04 -1.63839600e+04
      1.96595337e+02 1.23814863e+04 2.28651230e+04 -1.81875020e+04
      7.43025342e+03 -3.76770742e+04 -1.65123254e+03 1.66161836e+04
      -5.31492676e+03 -3.14858418e+04 -1.63570566e+04 -1.80960430e+04
      -2.02708945e+04 -3.59649414e+04 2.86993359e+04 2.95594570e+04
      -3.57078594e+04 2.98970977e+04 -4.92151797e+04 7.56686621e+03
      3.04534766e+04 1.26204990e+04 2.50546328e+04 -1.53261895e+04
      7.32079102e+02 3.06040020e+04 -1.09488770e+04 3.15993398e+04
      -2.59438516e+04 -2.55306191e+04 1.85710293e+04 2.15758262e+04
      2.46193223e+04 2.67028496e+04 -2.75985586e+04 2.02695625e+04
      2.15787734e+04 1.23342969e+04 2.25453066e+04 -5.54745801e+03
      8.08402930e+03 -1.10246619e+03 5.82270325e+02 2.43333301e+04
      2.29834609e+04 2.72758906e+04 1.81569258e+04 1.08152822e+04
      -4.19897812e+04 -3.64631719e+04 -8.62291699e+03 -4.92481006e+03
      -1.44828340e+04 1.85286836e+04 8.60765723e+03 -2.57550566e+04
      -3.94340210e+03 -7.02379297e+03 2.35617148e+04 -6.12241260e+03
      -3.10079805e+04 -2.16829512e+04 -1.33269795e+04 -2.18316367e+04
      -1.67816055e+04 -2.37913281e+04 -4.32968906e+04 3.66694297e+04
      2.73660801e+04 -6.61222852e+03 -2.97036465e+04 1.23497354e+04
      -8.89275879e+03 -4.71447852e+03 -1.47639990e+04 2.29290391e+04
      1.57301035e+04 -2.47988105e+04 7.28194189e+03 2.53004102e+04
      -4.34156875e+04 2.40285781e+04 -6.43319297e+04 -4.60886914e+03
      -1.66971838e+03 3.01451758e+04 1.72085918e+04 -3.85317695e+04
      2.38016426e+04 1.12603564e+03 1.96963457e+04 2.66500039e+04
      2.08785508e+04 -5.08573477e+04 -7.95662500e+03 4.33826133e+04
      -7.56911328e+03 -6.83196167e+02 1.83703770e+04 -5.26877617e+04
      2.40364961e+04 -3.15269849e+03 2.85469458e+03 2.77302070e+04
      -4.10661670e+03 4.94478477e+04 -4.13109727e+04 -5.97569873e+03
      -4.59618134e+02 4.20076514e+03 1.85475059e+04 -5.94729922e+04
      -1.68125020e+04 -7.15245020e+03 -4.61257383e+04 1.06260820e+04
      -1.09521592e+04 2.63401465e+04 -2.87976113e+04 -3.22354473e+04
      -2.64507715e+04 -1.91367207e+04 9.45316211e+03 1.42293347e+03
      4.28261680e+04 2.55958164e+04 2.43191406e+04 -2.64848223e+04
      2.92482852e+04 1.37847754e+04 8.60932422e+03 -2.55067246e+04
      1.52487266e+04 -2.69013438e+04 2.85325938e+04 1.03818535e+04
      4.88368555e+03 3.54230898e+04 5.65384961e+04 -5.32073750e+04
      8.97467871e+03 2.72049258e+04 -1.50992207e+04 3.34622305e+04
      1.95158496e+04 1.54905479e+04 -5.69627539e+04 1.45011934e+04
      1.80223789e+04 -3.74688711e+04 -3.21663203e+04 4.40395273e+04
      2.80886211e+04 -1.31012676e+04 -1.77746933e+02 2.10720527e+04
      8.64350000e+03 -1.73993945e+04 6.15308789e+03 -1.49884639e+04
      1.66508066e+04 7.71443750e+03 -3.25349473e+04 3.89964883e+04
      -3.18883008e+04 2.10852773e+04 9.40684277e+03 -2.29267617e+04
      9.65207910e+03 -3.02691602e+04 -1.77672539e+04 1.02525479e+04
      -1.09521592e+04 -3.40639414e+04 -3.13275859e+04 -3.08316152e+04
      -5.15522109e+04 2.32286719e+04 4.68455703e+04 -4.71447852e+03
      -2.73192969e+04 -1.82304688e+04 2.62085020e+04</_>
    <_>
      3.00634902e+04 -1.62097388e+03 4.19507656e+04 -4.49397891e+04
      4.22837266e+04 5.33404180e+04 2.07816875e+04 -2.30930059e+04
      5.27403867e+04 3.07547925e+03 3.23758594e+03 2.88789707e+04
      -6.27773594e+04 3.94639414e+04 1.25373057e+04 -4.68486250e+04
      -6.98405566e+03 1.47363525e+04 -4.34141328e+04 3.05241934e+04
      -3.74885156e+04 -7.52263906e+04 3.89886914e+04 -1.08717969e+03
      3.51294570e+04 2.37001113e+04 -8.72152500e+04 2.08183906e+04
      1.20372539e+04 2.21404531e+04 3.21367441e+04 -8.12311641e+04
      1.48002173e+03 6.80925098e+03 5.23917383e+03 3.67719062e+04
      3.50222930e+04 4.74257031e+04 -1.91909741e+03 -9.71013672e+04
      2.04378008e+04 -2.64929512e+04 7.50593359e+04 -5.36911211e+04
      2.05705117e+04 2.60131406e+04 -9.72172578e+04 -7.93698584e+03
      -4.33277031e+04 -4.71549609e+03 -4.78076523e+04 -4.17337188e+04
      3.40903320e+04 1.23314072e+04 2.48859043e+04 4.75308477e+04
      -7.19901550e+02 -1.11652197e+04 1.36921689e+04 7.01806328e+04
      3.16286289e+04 5.41277734e+03 -7.72275938e+04 7.25447168e+03
      1.53972920e+04 7.97032656e+04 -3.36975742e+04 4.08031133e+04
      -1.85991785e+03 -5.77447188e+04 -2.35292559e+04 1.04878926e+04
      6.77249531e+04 3.70439062e+04 1.44113359e+04 7.80965576e+03
      -7.81516328e+04 3.61168555e+04 1.83388770e+04 -1.55403691e+04
      -1.87722637e+04 2.67293506e+03 2.45592891e+04 1.90290391e+04
      3.62845938e+04 1.30894863e+04 7.13711250e+04 -6.23535039e+04
      1.35272539e+04 -2.64700723e+04 -7.96323242e+03 1.28891836e+04
      2.29010723e+04 -5.91984131e+03 -5.55990586e+04 2.38589570e+04
      -5.47189502e+03 -1.50139404e+04 4.18173359e+04 4.53884570e+04
      -2.62728574e+04 3.56730977e+04 -8.06211797e+04 7.10286670e+03
      4.42924766e+04 1.74814980e+04 3.84316328e+04 2.09558105e+04
      2.95690781e+04 2.79580020e+04 1.99341230e+04 2.69653398e+04
      -3.32085205e+03 -4.51826211e+04 3.20360293e+04 1.75388262e+04
      -7.75467676e+03 3.81928477e+04 -1.50285586e+04 6.87685625e+04
      1.94337734e+04 1.15812969e+04 6.55213047e+04 -8.38945801e+03
      -1.95089707e+04 1.31825342e+04 2.52927051e+03 3.25963301e+04
      4.38554609e+04 2.47198906e+04 3.16679277e+04 2.72562832e+04
      -1.48397822e+04 -7.02251719e+04 -2.18799180e+04 3.39031914e+04
      -1.70908340e+04 2.20446836e+04 4.78065674e+03 -6.58460547e+04
      1.69459790e+03 -1.09587930e+04 4.61907148e+04 1.41415879e+04
      -2.23198145e+03 -7.02989531e+04 4.57202002e+03 -6.09426367e+04
      -8.31260547e+03 -7.36693281e+04 -4.27868906e+04 3.77294297e+04
      3.55810820e+04 -4.38522900e+03 -5.39876484e+04 1.31777354e+04
      -1.44037588e+04 5.38152148e+03 -64575. 4.13760391e+04
      2.81871035e+04 -5.53468125e+04 -4.52380586e+04 3.67854102e+04
      -4.53726875e+04 2.60155781e+04 -7.87909297e+04 3.00113086e+03
      -2.88371826e+03 4.01317529e+03 1.93125918e+04 -3.11237695e+04
      -1.14843564e+04 3.96203540e+03 3.22063457e+04 4.73320039e+04
      3.74945508e+04 -5.55193477e+04 -5.88756250e+04 7.81561328e+03
      -6.39791133e+04 -1.16971963e+04 2.89183770e+04 -1.20125758e+05
      -2.98750464e+03 -8.92769824e+03 2.15694580e+02 3.40442070e+04
      4.11973828e+04 4.39068477e+04 -3.22489707e+04 -1.88846992e+04
      3.83738208e+03 -3.97923511e+03 2.93185059e+04 -6.18449922e+04
      3.38474961e+04 -1.07045020e+03 -6.11957383e+04 -1.80829180e+04
      1.16718408e+04 3.96861445e+04 -8.85956094e+04 -2.21404473e+04
      -6.85777197e+03 4.79279236e+02 -4.91838226e+02 8.72893359e+03
      3.10321680e+04 -1.13541836e+04 2.60131406e+04 -4.95778203e+04
      3.79172852e+04 1.18767754e+04 2.77333242e+04 -5.25957266e+04
      2.07447266e+04 -7.07663438e+04 3.99785938e+04 1.43648535e+04
      3.45146836e+04 2.34960898e+04 7.97045000e+04 -9.99683750e+04
      6.64767871e+03 4.76769258e+04 -1.15432207e+04 2.48382285e+04
      2.83678496e+04 6.96335469e+04 -4.84767539e+04 3.36971914e+04
      -2.71216211e+04 -3.98138711e+04 -2.34893203e+04 3.36935273e+04
      3.93356211e+04 -1.74062676e+04 9.11125293e+03 2.19890527e+04
      1.83175000e+04 1.22836055e+04 7.29808789e+03 -4.55446338e+03
      7.12998047e+04 1.06934375e+04 -2.28769473e+04 2.89504863e+04
      -6.98922969e+04 -5.61672266e+03 -2.30211582e+04 -6.19707617e+04
      1.03720791e+04 -3.38551602e+04 -1.47282529e+04 3.54795469e+04
      1.16718408e+04 -1.00413945e+05 4.77414276e+02 -7.62786172e+04
      -7.58402109e+04 1.83486719e+04 3.13485703e+04 5.38152148e+03
      -2.91352969e+04 -3.80746899e+03 3.48895000e+04</_>
    <_>
      -2.58275098e+04 -2.23249746e+04 1.15328766e+05 -2.07047891e+04
      -1.57712754e+04 1.29301414e+05 -3.83033125e+04 -4.52870039e+04
      1.36076391e+05 -5.56675195e+04 -7.41941406e+03 2.90497021e+03
      -9.41735742e+03 -2.43210605e+04 -4.33686953e+04 6.33337354e+03
      6.23969453e+04 -2.06556484e+04 -1.23981348e+04 -2.27048066e+04
      4.82534844e+04 -3.25533945e+04 -7.21130957e+03 4.16328203e+04
      7.14564609e+04 -4.17608867e+04 -1.06813250e+05 -2.89876094e+04
      -4.22667461e+04 -4.03225469e+04 -2.05202559e+04 -1.01403164e+05
      -1.06819785e+04 -5.19647500e+04 -3.02698262e+04 -2.56270938e+04
      -2.88307070e+04 -1.09112969e+04 4.71569023e+04 -6.60313672e+04
      -4.15301992e+04 3.77800469e+04 1.54125344e+05 -5.38871211e+04
      -3.34074883e+04 -4.11948594e+04 -5.19762617e+04 -4.67029844e+04
      -5.18027031e+04 -1.28484961e+04 -1.02265112e+03 -1.09447207e+04
      -2.48206680e+04 -3.52735938e+04 -3.55040938e+04 -5.72215039e+03
      6.94161016e+04 -1.43382197e+04 -2.57268320e+04 1.51305641e+05
      -1.75093711e+04 6.20547773e+04 -6.25505977e+04 8.79194688e+04
      -5.75770752e+03 1.58164266e+05 -4.32965742e+04 -2.49838848e+04
      -4.22691797e+03 -8.26267188e+04 7.44744141e+02 -2.65771074e+04
      1.47250953e+05 -1.43870928e+04 7.59013359e+04 -1.08463438e+04
      -5.18226328e+04 -1.61261436e+04 7.08258750e+04 -2.69413691e+04
      -3.51332656e+04 1.82319355e+04 -2.59077109e+04 9.42080391e+04
      1.12730594e+05 -3.81505156e+04 1.55056125e+05 -3.80275039e+04
      -1.66647461e+04 3.29689258e+04 -6.48642344e+04 -3.71108164e+04
      1.00065070e+05 6.52131602e+04 -2.29105664e+03 8.00889531e+04
      4.05801055e+04 3.40960586e+04 -8.69866406e+03 -1.56455430e+04
      2.15914209e+03 -2.49389023e+04 -3.23151797e+04 -4.92961328e+04
      -1.10505234e+04 -6.10350146e+03 -1.19753672e+04 5.49578125e+04
      9.50240781e+04 82810. 9.44361250e+04 -3.54076602e+04
      6.35191484e+04 -4.54726211e+04 -1.56269697e+04 -5.30317334e+03
      -9.04067676e+03 -2.26691504e+04 -4.17475586e+04 1.40265562e+05
      -3.41642266e+04 -2.66207031e+04 1.47869312e+05 -3.28264570e+04
      2.33610293e+04 -9.58446582e+03 -6.09172949e+03 -2.62876699e+04
      -1.84435391e+04 -2.92371094e+04 -3.55910742e+04 -5.19471777e+03
      2.71012188e+04 -5.24281719e+04 -4.30569180e+04 1.09582188e+05
      -4.57608359e+04 -2.26673164e+04 -2.77293438e+04 -2.52450566e+04
      -2.11664023e+04 -3.54297930e+04 -1.68272852e+04 -4.26394141e+04
      4.81340195e+04 -2.00219512e+04 -1.34609795e+04 -8.20963672e+03
      -4.85276055e+04 -4.99003281e+04 -1.14228896e+04 -1.83955723e+04
      -2.79549199e+04 -1.50742285e+04 -2.71256465e+04 -8.28726465e+03
      -3.51887578e+04 6.48265195e+04 -1.53329980e+04 -2.03899609e+04
      -3.52638984e+04 -7.72381104e+03 -1.81130586e+04 -2.07035898e+04
      -2.92276895e+04 -2.43654219e+04 -4.52609297e+04 -1.82138691e+04
      -2.18497188e+04 2.43991758e+04 -3.43404102e+04 2.62322305e+04
      2.03556426e+04 3.62103540e+03 -2.36436543e+04 -1.93069961e+04
      -2.64234492e+04 -3.88923477e+04 -3.49756250e+04 3.28726133e+04
      -1.71081133e+04 -4.30531953e+04 -3.26926230e+04 -1.11619758e+05
      1.56244951e+04 -6.24036992e+04 -1.85093047e+04 -1.88887930e+04
      1.18994383e+05 6.93108438e+04 1.60102881e+03 -5.49066992e+04
      -2.32256172e+04 -1.04332354e+04 -3.88714961e+04 -3.14059922e+04
      8.80205000e+04 -1.66524512e+04 -7.09097344e+04 2.27960820e+04
      -5.78315869e+03 -1.99238535e+04 -6.43846094e+04 3.15755527e+04
      3.69702266e+04 6.60732812e+04 -4.96278398e+04 -9.25106641e+03
      7.78391641e+04 2.90048164e+04 -4.11948594e+04 -1.16228223e+04
      -2.23967148e+04 -2.62442246e+04 4.86832373e+03 -1.43537256e+04
      -3.43432734e+04 -3.90433438e+04 -1.51774062e+04 -4.93201445e+04
      -6.83147583e+01 6.65180859e+04 1.39729500e+05 -8.57653750e+04
      -6.49732129e+03 -7.10407520e+03 -8.16322070e+03 -2.70507715e+04
      -3.83521484e+04 1.47263547e+05 -3.17687539e+04 -3.22658066e+04
      1.66537878e+03 -4.72087256e+03 3.06886797e+04 5.83155273e+04
      -1.86443789e+04 -3.82302695e+04 -4.46577461e+04 -3.74299453e+04
      -1.78285000e+04 6.60566094e+04 -5.13629141e+04 6.95925391e+04
      1.50712812e+05 -1.33865625e+04 2.24720527e+04 8.36464844e+04
      -2.31373008e+04 6.41427734e+03 3.93388438e+04 -3.72687617e+04
      -2.71449199e+04 -2.77071602e+04 1.26167471e+04 4.83454834e+03
      -5.78315869e+03 -1.03554945e+05 5.20914141e+04 -5.33866133e+04
      -2.45542109e+04 -4.48303281e+04 8.06825703e+04 6.48265195e+04
      -3.07822969e+04 -1.62944688e+04 -1.76084980e+04</_>
    <_>
      2.25924902e+04 -8.50973877e+02 -8.46223633e+03 -4.32667891e+04
      3.18937246e+04 1.05164180e+04 -2.91831226e+03 -2.56120059e+04
      8.61838867e+03 -5.38520752e+02 2.63058594e+03 1.13409697e+04
      -1.96435754e+03 3.75129414e+04 5.25330615e+03 -2.12786270e+04
      -2.06100566e+04 6.59035205e+03 -4.98831328e+04 3.46411914e+04
      -2.58285156e+04 -1.60553936e+04 2.29036895e+04 -4.10831797e+04
      4.94574570e+04 3.93831133e+04 -1.05342471e+04 2.42803906e+04
      2.49662539e+04 2.75594531e+04 2.46007441e+04 -6.25616748e+03
      9.25021545e+02 1.81662520e+04 1.39691738e+04 2.19359062e+04
      1.58502920e+04 3.07047031e+04 -3.22980977e+04 -3.51123711e+04
      1.74108008e+04 -1.58189512e+04 3.01143359e+04 -5.22581211e+04
      -3.88348804e+03 3.31771406e+04 -5.67482617e+04 4.79001416e+03
      -4.76747031e+04 -2.73849609e+03 1.93234875e+03 -4.13997188e+04
      3.15453320e+04 2.91814062e+04 1.99849043e+04 2.74838496e+04
      -2.85609023e+04 -1.55662197e+04 3.05116846e+03 3.05566367e+04
      1.80216289e+04 -2.64972227e+04 -1.76795977e+04 -4.27952832e+03
      6.61929248e+03 3.20112676e+04 -3.93105742e+04 3.09601152e+04
      -1.29179180e+04 -1.55787168e+04 -8.61225586e+03 8.33889258e+03
      2.87759512e+04 2.36539082e+04 -1.66476641e+04 -6.96134424e+03
      -5.04496328e+04 3.61748555e+04 2.64148770e+04 -8.79336914e+03
      -5.78126367e+03 -1.81600645e+04 4.86828857e+03 -1.59119600e+04
      -5.59840479e+03 1.30544863e+04 3.52261211e+04 -1.52555020e+04
      6.70325391e+03 -2.76540723e+04 2.16167676e+04 2.19201836e+04
      -1.36889268e+04 -5.84984131e+03 -3.60568581e+01 -1.26470439e+04
      -2.28138945e+04 -4.49689414e+04 2.92953359e+04 3.34964570e+04
      -2.85488574e+04 2.43450977e+04 -4.07671797e+04 1.11208662e+04
      3.45154766e+04 1.54374990e+04 2.85616328e+04 2.47108105e+04
      -1.65299219e+04 1.27900020e+04 1.64123215e+02 3.74023398e+04
      -2.83008516e+04 -4.22766211e+04 2.12920293e+04 1.71048262e+04
      2.55053223e+04 2.70648496e+04 -2.20395586e+04 1.55415635e+04
      5.36177393e+03 2.06652969e+04 1.43123066e+04 -1.17154580e+04
      1.23100293e+04 8.37753418e+03 -8.13572949e+03 1.32833301e+04
      3.48254609e+04 1.77778906e+04 4.52059258e+04 7.82128271e+03
      -4.24357812e+04 -5.33541719e+04 -1.14979170e+04 -5.90480957e+03
      -1.98898340e+04 1.32446836e+04 1.26376572e+04 -4.28105762e+03
      6.23059814e+03 -9.01879297e+03 2.68057148e+04 2.50925879e+04
      -4.77469805e+04 -1.29639512e+04 -2.68109805e+04 -3.40163647e+03
      3.26239478e+03 -1.05313291e+04 -2.94938906e+04 3.65342822e+03
      3.52650820e+04 7.85777100e+03 -4.63526484e+04 6.70673535e+03
      1.36624133e+03 -3.16954785e+04 -3.25969980e+04 3.18140391e+04
      2.37981035e+04 -9.89881152e+03 -8.60580521e+01 2.74034102e+04
      -4.99866875e+04 2.20125781e+04 -5.04459297e+04 -8.70986914e+03
      -4.37571826e+03 3.56241758e+04 2.42375918e+04 -4.83707695e+04
      7.66364307e+03 -5.71696436e+03 2.32093457e+04 3.35290039e+04
      2.20265508e+04 -4.42253477e+04 -1.69166250e+04 2.38236133e+04
      -2.96001133e+04 -8.20119629e+03 2.12603770e+04 -5.42487617e+04
      2.41404961e+04 1.42530176e+03 8.26694519e+02 3.04592070e+04
      -2.93361694e+03 4.79438477e+04 -5.06709727e+04 -2.40369873e+03
      3.28038208e+03 -1.65242344e+04 3.20895059e+04 -3.80489922e+04
      -1.07875020e+04 -6.93445020e+03 -5.48757383e+04 1.53060820e+04
      -4.20215869e+03 2.11001465e+04 -3.20306113e+04 -3.79944492e+04
      -3.85917734e+04 -9.61372070e+03 3.13816187e+03 -1.88406653e+03
      5.65401680e+04 2.44838164e+04 3.31771406e+04 -1.16058223e+04
      3.91528442e+03 6.05277588e+03 -5.41767578e+03 -1.38377246e+04
      2.77507266e+04 -1.13463428e+04 3.15415938e+04 4.64485352e+03
      5.82685303e+02 5.45870898e+04 7.95175000e+04 -3.00873750e+04
      -3.27732153e+03 1.64849258e+04 -1.51562207e+04 -3.36977075e+03
      3.85848516e+04 1.85955469e+04 -4.46537539e+04 1.72851934e+04
      1.52933789e+04 -3.47688711e+04 -3.71733203e+04 4.51045273e+04
      2.28816211e+04 -1.02992676e+04 2.39812539e+04 1.65940527e+04
      1.21485000e+04 -3.25993945e+04 3.38910898e+04 -2.17746338e+03
      2.05858066e+04 8.71443750e+03 -3.86949453e+04 3.49074883e+04
      -4.89643008e+04 2.30302773e+04 -2.16415771e+03 -5.17977617e+04
      1.97007898e+03 -4.26481602e+04 -2.28052539e+04 7.14254834e+03
      -4.20215869e+03 -5.54769414e+04 -3.15505859e+04 -3.74266133e+04
      -3.85772109e+04 8.69267188e+03 5.59505703e+04 -3.16954785e+04
      -3.63812969e+04 -9.44469055e+02 2.87885020e+04</_>
    <_>
      3.31764922e+04 -2.89797388e+03 1.71827637e+04 -6.95707891e+04
      3.82257266e+04 3.11094180e+04 2.10666875e+04 -3.48020039e+04
      3.90003867e+04 3.37647925e+03 3.56658594e+03 1.33969697e+04
      -2.17323574e+04 4.31319414e+04 1.08953057e+04 -3.47226250e+04
      -2.31760566e+04 1.68313516e+04 -6.29231328e+04 3.82491914e+04
      -5.28795156e+04 -3.43783945e+04 3.12476895e+04 -3.14851797e+04
      5.96874570e+04 2.55451113e+04 -6.07762461e+04 2.21823906e+04
      5.79925391e+03 2.44734531e+04 2.94177441e+04 -5.89561680e+04
      3.92702173e+03 4.01525098e+03 9.39817383e+03 3.35239062e+04
      2.65522930e+04 4.43977031e+04 -2.49300977e+04 -5.28053711e+04
      1.93278008e+04 -3.24879512e+04 5.62743359e+04 -6.50561211e+04
      1.86315117e+04 2.78981406e+04 -9.45032578e+04 -5.43998584e+03
      -4.79597031e+04 -5.26749609e+03 -1.25206514e+04 -6.48367188e+04
      3.15553320e+04 1.71134062e+04 2.28629043e+04 3.75058477e+04
      -2.40179023e+04 -1.55762197e+04 8.61216895e+03 5.73536367e+04
      2.96886289e+04 -1.73652227e+04 -4.08175977e+04 -1.44745283e+04
      1.23262920e+04 6.15802695e+04 -3.63375742e+04 3.83671133e+04
      -6.35191797e+03 -4.52247188e+04 -3.46525586e+03 1.65648926e+04
      5.00369492e+04 3.38859062e+04 -1.01146641e+04 3.21965576e+03
      -8.74766328e+04 3.74848555e+04 3.33978750e+04 -1.58623691e+04
      -2.27552637e+04 -2.41970645e+04 2.59622891e+04 -2.56396021e+03
      1.36695957e+04 1.69434863e+04 5.97651211e+04 -2.03055020e+04
      1.20122539e+04 -4.05790742e+04 -6.86823242e+03 1.84521836e+04
      4.70907324e+03 -2.45808418e+04 -1.49960566e+04 -6.87904395e+03
      -2.92678945e+04 -3.97629414e+04 3.98693359e+04 4.33904570e+04
      -5.19368594e+04 3.21050977e+04 -4.61081797e+04 6.91986670e+03
      4.12514766e+04 1.25054990e+04 3.61226328e+04 5.61181104e+03
      1.27680791e+04 3.89160039e+04 -2.02187671e+03 3.24033398e+04
      -3.04968516e+04 -5.24086211e+04 2.79510293e+04 1.95408262e+04
      1.38483232e+04 3.47428477e+04 -3.12645586e+04 4.65115625e+04
      2.06617734e+04 1.70252969e+04 4.74483047e+04 -1.31064580e+04
      1.74610293e+04 9.17853418e+03 3.52705498e+01 2.98763301e+04
      3.90114609e+04 3.13618906e+04 2.87379277e+04 1.24562822e+04
      -4.20227812e+04 -5.64551719e+04 -2.24049180e+04 1.37491904e+04
      -2.02238340e+04 2.45396836e+04 1.04176562e+04 -2.63730566e+04
      9.24597961e+02 -1.12137930e+04 4.17857148e+04 6.05058740e+03
      -3.40259805e+04 -3.15179512e+04 -2.56749805e+04 -1.79836367e+04
      -1.62326055e+04 -3.90283281e+04 -6.16938906e+04 4.00314297e+04
      4.12210820e+04 -1.93822876e+03 -6.17416484e+04 1.54487354e+04
      -1.44427588e+04 -1.49454785e+04 -3.00279980e+04 3.76640391e+04
      2.54991035e+04 -1.88538105e+04 -1.41870576e+04 3.45314102e+04
      -6.30996875e+04 2.87575781e+04 -8.43709297e+04 1.55413086e+03
      -4.57718292e+02 3.90331758e+04 1.96745918e+04 -5.52497695e+04
      1.18676436e+04 -5.37964539e+02 3.15453457e+04 4.21460039e+04
      3.10575508e+04 -7.24483516e+04 -2.65306250e+04 3.99756133e+04
      -3.24441133e+04 -1.32631963e+04 2.14013770e+04 -8.92177578e+04
      2.13284961e+04 -4.67369824e+03 8.36694580e+02 3.30592070e+04
      1.82733828e+04 6.23038477e+04 -5.53559727e+04 -1.81576992e+04
      8.99382080e+02 -8.76723535e+03 2.88795059e+04 -8.11169922e+04
      4.48249805e+03 -2.16545020e+03 -7.20417344e+04 2.09130820e+04
      -1.88411582e+04 3.44061445e+04 -5.02786094e+04 -4.55954492e+04
      -3.18637715e+04 -1.75427207e+04 2.02416174e+03 7.41693359e+03
      5.53901680e+04 1.49628164e+04 2.78981406e+04 -2.77988223e+04
      3.82082852e+04 1.74527754e+04 1.06793242e+04 -3.12927246e+04
      1.85167266e+04 -3.25593418e+04 3.81875938e+04 1.38968535e+04
      1.53036855e+04 4.94010898e+04 9.40215000e+04 -8.57473750e+04
      3.09867847e+03 3.77029258e+04 -1.96312207e+04 2.56512285e+04
      2.84548496e+04 5.40115469e+04 -7.47407578e+04 2.99261934e+04
      1.10813789e+04 -5.92508711e+04 -4.81013203e+04 5.72095273e+04
      3.61676211e+04 -1.81692676e+04 4.33825293e+03 1.79180527e+04
      1.54515000e+04 -1.28373945e+04 8.92208789e+03 -2.04844629e+04
      5.27488047e+04 9.79143750e+03 -4.53259453e+04 4.54374883e+04
      -6.86152969e+04 1.55602773e+04 7.75984229e+03 -4.77397617e+04
      8.68507910e+03 -5.21941602e+04 -2.98752539e+04 1.76695488e+04
      -1.88411582e+04 -7.33649453e+04 -2.58725859e+04 -5.09166133e+04
      -4.56782109e+04 2.22836719e+04 5.64485703e+04 -1.49454785e+04
      -5.43632969e+04 -2.41294688e+04 3.27595020e+04</_>
    <_>
      3.69074922e+04 -5.91997412e+03 1.31376392e+03 -4.54277891e+04
      2.63737246e+04 1.67634180e+04 2.88296875e+04 -3.22900059e+04
      1.14533887e+04 6.28747900e+03 3.48458594e+03 2.13229707e+04
      -2.84573574e+04 3.34239414e+04 8.10830615e+03 -2.72966270e+04
      -2.05460566e+04 1.20513525e+04 -4.85931367e+04 3.59991914e+04
      -5.67275156e+04 -3.15213926e+04 2.12666895e+04 -3.34381797e+04
      5.54364570e+04 2.00271113e+04 -3.26702461e+04 1.98603906e+04
      4.50025391e+03 2.72094531e+04 2.10697441e+04 -3.14421680e+04
      4.11902148e+03 -1.13674878e+03 1.19317395e+03 2.20549062e+04
      2.53842930e+04 3.24897031e+04 -1.06580977e+04 -5.71333711e+04
      1.87588008e+04 -3.60639531e+04 2.44453359e+04 -4.10081211e+04
      2.93335117e+04 2.19291406e+04 -7.20542578e+04 6.12701416e+03
      -3.36967031e+04 -7.99649609e+03 -2.06126504e+04 -3.79897188e+04
      2.41193320e+04 1.36494072e+04 1.61849053e+04 2.41578496e+04
      -2.25019023e+04 -4.43021973e+03 5.35416846e+03 2.15676367e+04
      1.94316289e+04 -1.49182227e+04 -1.89645977e+04 -2.73705293e+04
      7.64729199e+03 2.69642676e+04 -2.49495723e+04 2.61401152e+04
      -2.16891772e+03 -4.95697188e+04 1.35817441e+04 1.19489294e+03
      1.58989502e+04 2.62089082e+04 -1.20076641e+04 6.62665576e+03
      -6.18326328e+04 1.91048574e+04 4.12988750e+04 -1.42453701e+04
      -1.68122637e+04 -2.64006470e+03 3.11012891e+04 -1.19639600e+04
      4.12159521e+03 1.42534863e+04 2.63441230e+04 -1.98535020e+04
      6.95325342e+03 -3.71780742e+04 -7.60823242e+03 1.12291836e+04
      -3.65992676e+03 -4.95618398e+04 -2.53120566e+04 -2.71880430e+04
      -2.14088945e+04 -3.51049414e+04 2.87123359e+04 2.84154570e+04
      -3.51858594e+04 2.79100977e+04 -5.58361797e+04 1.08218662e+04
      2.89504766e+04 1.23094990e+04 2.38476328e+04 -1.86681895e+04
      8.89107910e+03 3.99530039e+04 -4.36787695e+03 3.29273398e+04
      -3.28528516e+04 -3.76146211e+04 1.71010293e+04 1.45188262e+04
      3.25333223e+04 2.53338496e+04 -3.11945586e+04 2.27145625e+04
      2.88727734e+04 -1.09470325e+03 2.31303066e+04 -3.84045825e+03
      8.32602930e+03 4.30853369e+03 -1.01872961e+03 3.11583301e+04
      2.54254609e+04 3.09448906e+04 1.93319258e+04 1.26252822e+04
      -3.37237812e+04 -5.06111719e+04 -1.10389170e+04 2.27719019e+03
      -1.25318340e+04 9.52268359e+03 -2.55034326e+03 -3.16600566e+04
      -3.46640210e+03 -8.10979297e+03 2.46887148e+04 1.72158740e+03
      -3.08329805e+04 -3.06049512e+04 -3.51979858e+02 -3.06056367e+04
      -1.90536055e+04 -3.03473281e+04 -4.47208906e+04 4.09304297e+04
      2.51890801e+04 -5.79622900e+03 -2.47086465e+04 1.06357354e+04
      -1.53147588e+04 -1.87047864e+03 -2.41309980e+04 2.21320391e+04
      1.48371035e+04 -3.12458105e+04 4.80894189e+03 2.23404102e+04
      -5.09386875e+04 2.48625781e+04 -6.52529297e+04 -3.08886914e+03
      -7.49718323e+02 3.64371758e+04 1.26295918e+04 -3.94237695e+04
      2.84576426e+04 1.67403564e+03 1.69903457e+04 2.87840039e+04
      2.07705508e+04 -6.04783477e+04 -1.13516250e+04 4.07176133e+04
      -1.41301133e+04 5.72803833e+02 1.86123770e+04 -6.19787617e+04
      2.69824961e+04 -2.27069849e+03 1.25469470e+03 2.28962070e+04
      -6.55561670e+03 5.57168477e+04 -3.55429727e+04 -5.05569873e+03
      9.74381897e+02 7.56076514e+03 2.13615059e+04 -5.92959922e+04
      -2.19615020e+04 -7.35945020e+03 -4.86757383e+04 1.07990820e+04
      -1.05515918e+03 2.96901465e+04 -3.09186113e+04 -3.44284492e+04
      -1.83897715e+04 -3.87727227e+04 8.34516211e+03 2.59193359e+03
      4.57241680e+04 2.87418164e+04 2.19291406e+04 -2.05768223e+04
      3.28232852e+04 1.05377764e+04 1.78883242e+04 -1.98387246e+04
      1.12797266e+04 -2.20253438e+04 2.43145938e+04 1.32278535e+04
      1.44056855e+04 3.92540898e+04 6.87435000e+04 -6.57073750e+04
      5.37367822e+03 3.22669258e+04 -1.36402207e+04 3.34242305e+04
      2.07738496e+04 2.13195469e+04 -5.67977539e+04 1.69381934e+04
      1.45033789e+04 -4.02028711e+04 -3.17003203e+04 5.31085273e+04
      2.85176211e+04 -1.48232676e+04 1.90225305e+03 2.11000527e+04
      1.02085000e+04 -7.34639453e+03 2.72608789e+03 -3.92284648e+04
      1.79608066e+04 8.13443750e+03 -3.34179453e+04 4.90564883e+04
      -3.24323008e+04 2.75042773e+04 5.56484229e+03 -3.04447617e+04
      7.01807910e+03 -2.98171602e+04 -1.91642539e+04 2.34465488e+04
      -1.05515918e+03 -4.22969414e+04 -2.08925859e+04 -4.22826133e+04
      -5.60372109e+04 2.64426719e+04 4.76095703e+04 -1.87047864e+03
      -2.25712969e+04 -8.80646973e+03 2.47435020e+04</_>
    <_>
      3.68684922e+04 -8.82797363e+03 2.60576392e+03 -4.88637891e+04
      2.81087246e+04 1.70514180e+04 2.63456875e+04 -2.97470059e+04
      1.39533887e+04 5.05147949e+03 -6.97414062e+02 1.73769707e+04
      -2.20333574e+04 3.78969414e+04 9.90730566e+03 -3.03566270e+04
      -1.66300566e+04 1.29623525e+04 -4.63641328e+04 3.24871934e+04
      -5.47435156e+04 -2.73363945e+04 2.35816895e+04 -3.38421797e+04
      4.91934570e+04 2.20661113e+04 -3.24922480e+04 2.35433906e+04
      5.52725391e+03 2.90224531e+04 2.19297441e+04 -3.57881680e+04
      3.65902173e+03 2.06125122e+03 9.09317383e+03 2.45519062e+04
      2.80152930e+04 3.07367031e+04 -1.05820977e+04 -4.54663711e+04
      2.06598008e+04 -3.21729512e+04 2.91563359e+04 -4.41801211e+04
      2.62395117e+04 2.31501406e+04 -7.39932578e+04 4.99701416e+03
      -2.90257012e+04 -9.03749609e+03 -1.41456514e+04 -4.24857188e+04
      2.73563320e+04 1.25204072e+04 2.00129043e+04 2.63378496e+04
      -2.16119023e+04 -1.22832197e+04 4.50216846e+03 2.51376367e+04
      2.17886289e+04 -1.66242227e+04 -2.43885977e+04 -2.55995293e+04
      5.02629248e+03 3.27062676e+04 -2.29295723e+04 3.05981152e+04
      -7.58691797e+03 -3.98907188e+04 1.04297441e+04 7.58089307e+03
      1.74319512e+04 2.69579082e+04 -1.06486641e+04 1.28965576e+03
      -6.25746328e+04 2.32418574e+04 4.05438750e+04 -1.77843691e+04
      -1.88592637e+04 -1.66250645e+04 2.88212891e+04 -9.81595996e+03
      4.31259521e+03 1.19254863e+04 2.93471230e+04 -2.09895020e+04
      5.85225342e+03 -3.24780723e+04 -3.99823242e+03 1.82561836e+04
      -3.74992676e+03 -4.29548398e+04 -1.75430566e+04 -1.82840430e+04
      -2.55348945e+04 -3.58529414e+04 2.68473359e+04 3.05674570e+04
      -3.82968594e+04 2.86860977e+04 -5.16341797e+04 1.22318662e+04
      3.15794766e+04 9.90149902e+03 2.56606328e+04 -1.43171895e+04
      7.40307861e+03 4.14170039e+04 -3.98487671e+03 3.14333398e+04
      -3.12028516e+04 -3.82226211e+04 1.76780293e+04 1.40648262e+04
      2.59853223e+04 2.78688496e+04 -2.73045586e+04 2.64525625e+04
      2.63287734e+04 7.90529688e+03 2.61573066e+04 -5.59345801e+03
      1.04340293e+04 -9.74466003e+02 -2.46472949e+03 3.33243320e+04
      2.89884609e+04 2.90898906e+04 1.93039258e+04 8.96028223e+03
      -3.19397812e+04 -4.76461719e+04 -1.08019170e+04 1.71119031e+03
      -1.40848340e+04 1.69936836e+04 5.51665674e+03 -2.64730566e+04
      -3.80140210e+03 -8.61379297e+03 2.87827148e+04 3.53458740e+03
      -3.17139805e+04 -2.58409512e+04 -5.39497998e+03 -2.35606367e+04
      -1.46016055e+04 -3.26643281e+04 -4.38788906e+04 3.81874297e+04
      3.18790801e+04 -1.02042285e+04 -3.50566484e+04 1.01387354e+04
      -1.35427588e+04 -7.11347852e+03 -2.14889980e+04 2.66330391e+04
      1.80641035e+04 -2.02338105e+04 3.69094189e+03 2.68434102e+04
      -4.32596875e+04 2.46295781e+04 -6.58739297e+04 -5.25686914e+03
      -3.74271826e+03 3.25151758e+04 1.54475918e+04 -4.07987695e+04
      2.87486426e+04 -4.18396436e+03 2.01563457e+04 3.27240039e+04
      2.42455508e+04 -5.10173477e+04 -1.37306250e+04 3.21546133e+04
      -1.39561133e+04 -3.59519604e+03 2.10453770e+04 -6.25847617e+04
      2.83524961e+04 2.06301697e+02 9.81694580e+02 2.54602070e+04
      -3.71661694e+03 5.34838477e+04 -4.04839727e+04 -7.90069873e+03
      -8.21617981e+02 -1.06023523e+03 1.88805059e+04 -5.70029922e+04
      -1.20045020e+04 -9.06145020e+03 -5.00917383e+04 1.28310820e+04
      -3.68715894e+03 2.85891465e+04 -3.71996094e+04 -3.78944492e+04
      -2.02847715e+04 -3.52817227e+04 1.09441621e+04 1.18493347e+03
      3.90941680e+04 2.80508164e+04 2.31501406e+04 -2.45518223e+04
      3.46892852e+04 1.15047754e+04 1.17493242e+04 -2.35527246e+04
      1.16167266e+04 -2.41943418e+04 2.90715938e+04 1.40268535e+04
      8.65368555e+03 3.35960898e+04 6.37054961e+04 -6.65463750e+04
      3.95167847e+03 3.22549258e+04 -2.09012207e+04 3.30202305e+04
      2.04448496e+04 2.66715469e+04 -5.77537539e+04 2.11011934e+04
      9.99137891e+03 -3.95548711e+04 -3.58383203e+04 5.10745273e+04
      2.92406211e+04 -1.82242676e+04 2.34625293e+03 2.13000527e+04
      8.30250000e+03 -6.41439453e+03 3.80808789e+03 -3.55244648e+04
      2.37068066e+04 7.15843750e+03 -3.69879453e+04 4.79884883e+04
      -3.88293008e+04 2.56822773e+04 3.54984229e+03 -2.93047617e+04
      7.51207910e+03 -3.47011602e+04 -1.90772539e+04 1.59585488e+04
      -3.68715894e+03 -4.58959414e+04 -2.09705859e+04 -4.22846133e+04
      -5.39962109e+04 2.81426719e+04 4.04695703e+04 -7.11347852e+03
      -2.62132969e+04 -1.56024688e+04 2.55445020e+04</_>
    <_>
      3.76654922e+04 -1.45219736e+04 -9.43423633e+03 -3.57357891e+04
      2.60227246e+04 2.14177265e+01 2.68886875e+04 -2.34880059e+04
      -2.70461182e+03 1.17594795e+04 -6.72341406e+03 1.01439697e+04
      -2.61543574e+04 3.31659414e+04 9.51530566e+03 -1.95776270e+04
      -1.56840557e+04 1.56123525e+04 -3.10871348e+04 3.47831914e+04
      -5.17015156e+04 -2.38303945e+04 2.25726895e+04 -2.61391797e+04
      4.00324570e+04 2.56091113e+04 -2.70622480e+04 1.61443916e+04
      4.20425391e+03 3.17154531e+04 1.83137441e+04 -2.84741680e+04
      3.85021698e+02 3.61425122e+03 7.00517383e+03 2.42669062e+04
      2.67472930e+04 2.84237031e+04 -2.43309741e+03 -3.20523711e+04
      2.14468008e+04 -2.02529512e+04 3.82333691e+03 -3.39861211e+04
      2.54405117e+04 1.97541406e+04 -4.78082617e+04 6.06401416e+03
      -2.54437012e+04 -1.70914961e+04 -1.54646514e+04 -2.74737207e+04
      2.16433320e+04 1.55144072e+04 1.89709043e+04 1.66178496e+04
      -2.15609023e+04 -1.54442197e+04 3.04216846e+03 1.10563672e+03
      2.08386289e+04 -1.08992227e+04 9.46402771e+02 -3.28125273e+04
      -1.87770752e+03 6.48326807e+03 -1.51875723e+04 2.77331152e+04
      -1.80989180e+04 -1.91167168e+04 2.62777441e+04 6.43789307e+03
      -7.13004932e+03 2.56799082e+04 -8.92166406e+03 -4.49434424e+03
      -3.70536328e+04 1.65108574e+04 4.10698750e+04 -1.87443691e+04
      -1.35862637e+04 -1.53540645e+04 2.90522891e+04 -1.35999600e+04
      -4.37340479e+03 1.37044863e+04 3.28112256e+03 -1.37485020e+04
      1.45525366e+03 -2.34840723e+04 1.69376758e+03 1.08741836e+04
      -1.01649268e+04 -4.51068398e+04 -2.25380566e+04 -2.76170430e+04
      -2.03668945e+04 -2.39099395e+04 2.48993359e+04 2.66954570e+04
      -3.02898574e+04 2.75120977e+04 -4.18621797e+04 1.32558662e+04
      2.70374766e+04 3.69149878e+03 2.27226328e+04 -1.69971895e+04
      -2.42992114e+03 3.45470039e+04 -3.70787671e+03 2.92853398e+04
      -3.14648516e+04 -3.18936191e+04 1.54270293e+04 8.93482617e+03
      2.61743223e+04 2.58668496e+04 -2.50475586e+04 6.98356348e+03
      2.41027734e+04 7.46296753e+02 5.19030615e+03 -5.59945801e+03
      1.71050293e+04 -9.81146582e+03 -1.06207295e+04 3.78543320e+04
      2.70014609e+04 3.11538906e+04 1.87059258e+04 -5.15471729e+03
      -1.83167812e+04 -2.82651719e+04 -1.59909170e+04 -2.39780981e+03
      -1.55848340e+04 9.32268359e+03 3.88765674e+03 -2.61690566e+04
      -8.28140234e+03 -1.28847930e+04 2.58297148e+04 3.23458740e+03
      -2.56899805e+04 -2.79219512e+04 -1.06569795e+04 -2.63656367e+04
      -1.23316055e+04 -1.04783291e+04 -2.82348906e+04 4.19274297e+04
      2.75170801e+04 -1.80872285e+04 -1.50046475e+04 4.74373535e+03
      -1.65147578e+04 -1.21374785e+04 -1.19789980e+04 2.31370391e+04
      1.72141035e+04 -2.24398105e+04 2.62609414e+04 2.15924102e+04
      -2.89686895e+04 2.12955781e+04 -4.05699297e+04 -9.40586914e+03
      -9.36971875e+03 3.47851758e+04 1.32565918e+04 -3.16217695e+04
      4.35356445e+04 -1.26689648e+04 1.55043467e+04 2.91590039e+04
      2.20165508e+04 -3.91583477e+04 1.04373750e+04 3.76286133e+04
      -4.34111328e+03 4.38803864e+02 1.95303770e+04 -4.54387617e+04
      2.58024961e+04 3.85430176e+03 -5.16830566e+03 2.08952070e+04
      -2.00306172e+04 4.56218477e+04 -2.32849707e+04 -6.74469873e+03
      -4.30661768e+03 6.95764771e+02 1.88445059e+04 -3.76849922e+04
      -2.21405020e+04 -1.76444512e+04 -4.07767383e+04 1.85860820e+04
      -1.27371592e+04 2.62901465e+04 -1.41526104e+04 -2.83014473e+04
      -1.03957715e+04 -3.95547227e+04 1.37261621e+04 -5.71606641e+03
      3.10121680e+04 3.86708164e+04 1.97541406e+04 -2.23488223e+04
      3.50182852e+04 1.27907754e+04 2.76032397e+03 -2.20777246e+04
      9.90272656e+03 -2.36493418e+04 2.52345938e+04 1.45658535e+04
      -1.24531470e+03 2.67460898e+04 5.17834961e+04 -4.44963750e+04
      -3.76632153e+03 2.88489258e+04 -3.16242207e+04 3.47932305e+04
      2.02088496e+04 1.98854761e+03 -4.21687539e+04 1.95511934e+04
      2.55563789e+04 -2.59168730e+04 -2.95093203e+04 4.60035273e+04
      2.72226211e+04 -2.58562676e+04 -1.39074695e+03 2.11720527e+04
      5.16550000e+03 4.97605316e+02 7.74708789e+03 -4.19764648e+04
      1.03280652e+03 2.81843750e+03 -2.55099473e+04 4.63964883e+04
      -2.02743008e+04 2.47682773e+04 1.43758428e+04 -1.25507617e+04
      7.28407910e+03 -3.15631602e+04 -9.61725293e+03 9.24548340e+02
      -1.27371592e+04 -1.35829414e+04 -1.70255859e+04 -1.80196152e+04
      -4.44322109e+04 3.01536719e+04 3.12905703e+04 -1.21374785e+04
      -2.51362969e+04 -2.08824688e+04 2.26775020e+04</_>
    <_>
      3.96384922e+04 -1.92729746e+04 -9.65823633e+03 -3.28587891e+04
      2.42247246e+04 2.72417725e+02 3.01816875e+04 -2.56980059e+04
      -6.75761182e+03 1.02144795e+04 -1.22014141e+04 1.67209707e+04
      -2.21693574e+04 3.09409395e+04 5.37530615e+03 -2.24366270e+04
      -1.36960557e+04 8.58835254e+03 -3.01181348e+04 3.64901914e+04
      -4.48255156e+04 -1.77563945e+04 1.84946895e+04 -2.85301797e+04
      3.67484570e+04 2.38741113e+04 -1.49252471e+04 1.59173916e+04
      1.27502539e+04 3.16754531e+04 1.65677441e+04 -1.76221680e+04
      -6.20797852e+03 9.09325098e+03 1.40617395e+03 2.42999062e+04
      3.08392930e+04 2.96637031e+04 -1.46409741e+03 -2.95583711e+04
      2.73398008e+04 -2.02499512e+04 -2.45766309e+03 -2.97861211e+04
      2.86505117e+04 1.99171406e+04 -4.31582617e+04 5.96601416e+03
      -2.80417012e+04 -2.46544961e+04 -1.38666514e+04 -2.46907207e+04
      2.23753320e+04 1.30154062e+04 1.96509043e+04 1.92558496e+04
      -1.92069023e+04 -2.07252207e+04 -9.66831482e+02 -5.61836328e+03
      1.69166289e+04 -1.41022227e+04 1.34402771e+02 -3.59145273e+04
      -6.90770752e+03 -9.32731995e+02 -1.92185723e+04 2.66591152e+04
      -2.11659180e+04 -2.26867168e+04 2.57217441e+04 4.88930016e+01
      -1.14150498e+04 2.32889082e+04 -1.05866641e+04 -9.98834375e+03
      -3.24306348e+04 1.69708574e+04 4.17298750e+04 -2.50583691e+04
      -1.04002637e+04 -4.01506494e+03 3.25162891e+04 -1.14899600e+04
      -3.58040454e+03 9.75448633e+03 -3.15687744e+03 -8.45250195e+03
      -4.16574658e+03 -2.04680723e+04 3.17376758e+03 1.09581836e+04
      -7.13492676e+03 -4.88038398e+04 -2.13610566e+04 -3.25810430e+04
      -1.76518945e+04 -2.45079395e+04 2.33653359e+04 2.53964570e+04
      -2.76638574e+04 2.82310977e+04 -3.32781797e+04 9.18586621e+03
      2.53984766e+04 6.49498718e+02 1.86326328e+04 -2.64171895e+04
      -1.46792126e+03 3.78490039e+04 -3.85987671e+03 3.15093398e+04
      -3.15958516e+04 -3.37496211e+04 1.32920293e+04 8.40882617e+03
      3.30823242e+04 2.41468496e+04 -2.33385586e+04 2.05356323e+03
      2.68097734e+04 -4.02670337e+03 -1.23693794e+02 -8.29445801e+03
      1.82450293e+04 -1.70094668e+04 -1.66877285e+04 3.74023320e+04
      2.50914609e+04 3.02208906e+04 1.73259258e+04 6.37328271e+03
      -1.75867812e+04 -1.86771719e+04 -1.73419180e+04 -2.97680981e+03
      -1.81358340e+04 5.35668408e+03 -2.31834326e+03 -2.24430566e+04
      -1.34884023e+04 -1.40107930e+04 2.38977148e+04 9.40158789e+03
      -2.69949805e+04 -2.43669512e+04 -4.42979736e+02 -2.54206367e+04
      -1.00476055e+04 -7.98632910e+03 -2.90468906e+04 4.10284297e+04
      2.87190801e+04 -2.13712285e+04 -1.38406475e+04 -2.39026465e+03
      -1.94867578e+04 -7.61947852e+03 -1.32539980e+04 2.29930391e+04
      1.63351035e+04 -2.02628105e+04 2.83549414e+04 1.98954102e+04
      -3.29876875e+04 2.43495781e+04 -3.74299297e+04 -1.60388691e+04
      -1.87507188e+04 3.38301758e+04 1.56895918e+04 -3.01227695e+04
      4.54446445e+04 -1.71859648e+04 1.37293467e+04 2.73880039e+04
      1.97775508e+04 -4.19713477e+04 1.13103750e+04 3.55746133e+04
      -2.59711353e+03 -1.80119617e+03 2.51453770e+04 -3.70977617e+04
      2.88234961e+04 3.78130176e+03 -1.12143057e+04 1.95312070e+04
      -2.17956172e+04 3.99928477e+04 -2.32969707e+04 -6.96869873e+03
      -1.20856182e+04 -7.04423535e+03 1.92105059e+04 -3.72269922e+04
      -2.86795020e+04 -2.17584512e+04 -3.75037383e+04 2.01750820e+04
      -2.20815894e+03 2.70691465e+04 -6.20761084e+03 -2.68224473e+04
      -9.11477148e+03 -4.21367227e+04 1.19091621e+04 -1.29690664e+04
      2.71071680e+04 3.59318164e+04 1.99171406e+04 -8.14182227e+03
      3.15452852e+04 6.75177588e+03 9.63732422e+03 -6.68472510e+03
      1.32717266e+04 -1.71683418e+04 2.27185938e+04 1.40948535e+04
      7.63468506e+03 2.45820898e+04 3.64284961e+04 -3.71793750e+04
      -7.83732129e+03 2.81379258e+04 -3.22562207e+04 3.71532305e+04
      2.14698496e+04 -6.76945264e+03 -4.27487539e+04 1.65021934e+04
      2.71833789e+04 -2.54418730e+04 -2.51713203e+04 4.34415273e+04
      2.84296211e+04 -2.56432676e+04 6.18125293e+03 2.80260527e+04
      8.50499878e+02 -1.05839465e+03 9.72908789e+03 -4.45164648e+04
      -6.12619336e+03 -2.58356250e+03 -2.32989473e+04 4.50004883e+04
      -2.07383008e+04 2.92512773e+04 1.91388418e+04 -3.71376221e+03
      2.28107910e+03 -2.81291602e+04 -9.80525293e+03 1.14185488e+04
      -2.20815894e+03 -7.96994141e+03 -1.73805859e+04 -1.97906152e+04
      -3.67792109e+04 3.17646719e+04 2.91565703e+04 -7.61947852e+03
      -1.45452979e+04 -8.46146875e+03 2.27895020e+04</_>
    <_>
      3.71434922e+04 -1.01449736e+04 -3.54023608e+03 -3.98187891e+04
      2.54237246e+04 8.47041797e+03 2.33826875e+04 -2.40860059e+04
      3.62138843e+03 7.74447900e+03 -8.72414124e+02 8.20797070e+03
      -1.55003574e+04 3.25769395e+04 7.20730615e+03 -2.46986270e+04
      -2.36710566e+04 1.70563516e+04 -3.26051348e+04 3.28651914e+04
      -5.44925156e+04 -1.75763945e+04 2.46146895e+04 -2.82641797e+04
      4.20544570e+04 2.03461113e+04 -3.06312480e+04 2.16753906e+04
      1.65325403e+03 2.95044531e+04 1.91737441e+04 -3.34541680e+04
      4.97902148e+03 8.44251038e+02 9.89617383e+03 2.36039062e+04
      2.37032930e+04 2.59937031e+04 -9.65309766e+03 -3.02793711e+04
      1.88298008e+04 -2.83019512e+04 1.38873369e+04 -3.50501211e+04
      2.23645117e+04 2.03931406e+04 -5.34372617e+04 6.03401416e+03
      -1.68637031e+04 -1.07314961e+04 -5.51065137e+03 -3.82237188e+04
      2.19653320e+04 1.42444062e+04 1.94059043e+04 1.71568496e+04
      -2.46049023e+04 -1.39122197e+04 7.93616846e+03 9.30663672e+03
      2.47196289e+04 -1.07272227e+04 -1.26085977e+04 -2.62495293e+04
      3.96729248e+03 1.61352676e+04 -7.73157275e+03 2.47211152e+04
      -1.35029180e+04 -2.86267168e+04 1.90987441e+04 1.26408926e+04
      2.66795044e+03 2.88189082e+04 -1.34216641e+04 2.54865576e+03
      -4.36556328e+04 1.90458574e+04 4.06558750e+04 -1.74753691e+04
      -1.56122637e+04 -1.98640645e+04 2.64702891e+04 -1.46589600e+04
      -1.17440454e+03 1.21034863e+04 1.15611221e+04 -1.58035020e+04
      5.70825342e+03 -3.23820723e+04 2.54376733e+03 1.69681836e+04
      -9.81292676e+03 -4.04078398e+04 -1.22170566e+04 -2.18670430e+04
      -1.93718945e+04 -2.46239395e+04 2.40493359e+04 2.67714570e+04
      -3.40278594e+04 2.66510977e+04 -3.92561797e+04 1.12898662e+04
      2.81764766e+04 9.75149902e+03 2.25086328e+04 -2.35701895e+04
      -4.05292114e+03 3.17780020e+04 -7.76087646e+03 2.84683398e+04
      -3.20578516e+04 -2.82816191e+04 1.55800293e+04 1.38618262e+04
      2.99743223e+04 2.60958496e+04 -2.32125586e+04 1.63215635e+04
      2.10927734e+04 7.24229688e+03 1.22903066e+04 -5.68545801e+03
      8.75402930e+03 -5.70546582e+03 -3.08472949e+03 3.42223320e+04
      2.52464609e+04 3.13208906e+04 1.94599258e+04 -3.35271753e+03
      -2.45547812e+04 -2.15901719e+04 -1.42019170e+04 -4.11680957e+03
      -1.74768340e+04 1.74376836e+04 7.59465674e+03 -1.83200566e+04
      -5.18040186e+03 -1.10577930e+04 2.58317148e+04 -5.59412476e+02
      -2.73779805e+04 -1.93179512e+04 -1.14279795e+04 -1.52976367e+04
      -1.27166055e+04 -2.06883281e+04 -3.43348906e+04 4.13424297e+04
      3.20690801e+04 -1.41912285e+04 -2.35036465e+04 9.78773535e+03
      -1.56057588e+04 -1.11744785e+04 -1.35599980e+04 2.19030391e+04
      1.73581035e+04 -1.29298115e+04 1.61649414e+04 2.41174102e+04
      -3.75966875e+04 2.15045781e+04 -4.69409297e+04 -2.99686914e+03
      -6.24571826e+03 2.39891758e+04 1.62515918e+04 -3.69487695e+04
      3.22476426e+04 -9.63496484e+03 1.69653457e+04 2.83340039e+04
      2.25945508e+04 -4.31473477e+04 -2.51362500e+03 3.19956133e+04
      -6.80511328e+03 -1.16119617e+03 1.65993770e+04 -4.34887617e+04
      2.62394961e+04 1.73130164e+03 -6.87305420e+02 2.24022070e+04
      -1.34736172e+04 4.03248477e+04 -2.89649707e+04 -1.01226982e+04
      -1.86617981e+02 9.04764709e+02 1.83555059e+04 -4.79969922e+04
      -1.73815020e+04 -1.28414502e+04 -4.09577383e+04 9.74408203e+03
      -1.12241592e+04 2.51071465e+04 -1.78846113e+04 -2.90264473e+04
      -1.67867715e+04 -3.56847227e+04 1.29281621e+04 -1.66106653e+03
      3.23671680e+04 2.84738164e+04 2.03931406e+04 -1.94368223e+04
      3.45972852e+04 1.28917754e+04 7.06324097e+02 -2.00907246e+04
      7.10072656e+03 -2.06763418e+04 2.72985938e+04 1.22468535e+04
      -3.10631470e+03 2.78460898e+04 4.97524961e+04 -4.61003750e+04
      2.95067847e+03 2.65029258e+04 -2.74582207e+04 3.40482305e+04
      2.07908496e+04 7.96854785e+03 -4.52027539e+04 1.74031934e+04
      1.66853789e+04 -2.81678730e+04 -3.15013203e+04 4.19345273e+04
      2.68266211e+04 -2.31972676e+04 -5.02574707e+03 1.99760527e+04
      6.84850000e+03 -9.07939453e+03 5.96308789e+03 -3.49614648e+04
      1.00538066e+04 7.36643750e+03 -2.72689473e+04 4.52834883e+04
      -2.43513008e+04 2.27572773e+04 5.91084229e+03 -1.15677627e+04
      1.06730791e+04 -2.53601602e+04 -8.51025293e+03 2.76548340e+02
      -1.12241592e+04 -2.72049414e+04 -2.36195859e+04 -2.41426152e+04
      -4.27202109e+04 2.81936719e+04 3.12415703e+04 -1.11744785e+04
      -2.58152969e+04 -2.12364688e+04 2.49895020e+04</_>
    <_>
      3.73424922e+04 -8.56697363e+03 -2.72623608e+03 -4.69497891e+04
      2.52047246e+04 8.22741797e+03 2.60036875e+04 -2.31500059e+04
      9.35838867e+03 7.38447949e+03 -3.42741406e+03 2.30669707e+04
      -1.73133574e+04 3.45229414e+04 1.03233057e+04 -1.84726270e+04
      -1.68360566e+04 1.21333525e+04 -4.13001328e+04 3.07331934e+04
      -5.34215156e+04 -1.97303945e+04 2.35706895e+04 -2.88951797e+04
      3.82054570e+04 2.19821113e+04 -3.18762480e+04 1.73833906e+04
      9.68225391e+03 2.93754531e+04 1.79887441e+04 -3.47361680e+04
      8.95021667e+02 5.41125098e+03 2.98317407e+03 2.39129062e+04
      3.01382930e+04 2.87807031e+04 -1.06140977e+04 -2.55613711e+04
      2.00678008e+04 -2.96949512e+04 1.62123369e+04 -3.94401211e+04
      2.70795117e+04 1.86231406e+04 -5.91852617e+04 2.22101440e+03
      -3.43017031e+04 -1.10254961e+04 -6.05365137e+03 -3.42627188e+04
      2.14413320e+04 8.45240723e+03 1.79879043e+04 2.70188496e+04
      -2.33299023e+04 -9.90221973e+03 7.77216846e+03 1.39896367e+04
      2.17676289e+04 -1.61532227e+04 -1.32505977e+04 -3.38975273e+04
      5.88329248e+03 1.94612676e+04 -2.53355723e+04 2.85291152e+04
      -1.02719180e+04 -3.41507188e+04 1.22567441e+04 4.95089307e+03
      4.30995068e+03 2.33829082e+04 -1.01186641e+04 2.23065576e+03
      -4.71906328e+04 1.71878574e+04 3.39488750e+04 -1.79893691e+04
      -1.17732637e+04 -1.30350645e+04 2.80822891e+04 -1.14279600e+04
      1.07359546e+03 1.17004863e+04 1.56761221e+04 -8.31350195e+03
      6.01525342e+03 -2.97490723e+04 -6.73223242e+03 1.25661836e+04
      -6.18092676e+03 -4.98778398e+04 -1.26470566e+04 -2.49480430e+04
      -2.44108945e+04 -2.90539395e+04 2.37243359e+04 2.73714570e+04
      -3.80658594e+04 2.67830977e+04 -4.08881797e+04 1.12048662e+04
      2.69214766e+04 8.77249902e+03 2.09896328e+04 -2.30001895e+04
      7.68507861e+03 3.50650039e+04 -5.83787695e+03 2.57033398e+04
      -3.11678516e+04 -4.50646211e+04 1.51570293e+04 1.10058262e+04
      1.73833223e+04 2.60398496e+04 -2.12065586e+04 1.61405635e+04
      2.73817734e+04 2.65829663e+03 1.59123066e+04 -1.96545825e+03
      1.66860293e+04 -3.57346606e+03 -2.77272949e+03 3.62753320e+04
      2.78424609e+04 3.13498906e+04 1.71039277e+04 8.17728271e+03
      -2.51357812e+04 -2.75421719e+04 -8.91291699e+03 1.56190292e+02
      -8.81983398e+03 1.45136836e+04 -7.93432388e+01 -1.79290566e+04
      -5.48540186e+03 -6.08879297e+03 2.66297148e+04 7.11858740e+03
      -2.50969805e+04 -2.15069512e+04 1.16020241e+02 -1.74706367e+04
      -1.20986055e+04 -2.60773281e+04 -4.65658906e+04 3.77174297e+04
      3.17470801e+04 -1.27202285e+04 -2.74046465e+04 8.19673535e+03
      -1.18257588e+04 -6.11647852e+03 -8.82999805e+03 2.50910391e+04
      1.58851035e+04 -1.55698115e+04 1.46389424e+04 2.31294102e+04
      -4.49226875e+04 2.31995781e+04 -5.13519297e+04 -3.63586914e+03
      -1.74471826e+03 2.98691758e+04 1.28425918e+04 -3.63087695e+04
      3.06616426e+04 -5.72196436e+03 1.61523467e+04 3.07710039e+04
      2.32715508e+04 -5.47813477e+04 -1.25862500e+03 2.65766133e+04
      -4.59711328e+03 1.28803848e+02 2.21193770e+04 -4.93567617e+04
      1.57684951e+04 1.09530176e+03 6.98694580e+02 1.96012070e+04
      -1.17026172e+04 4.68298477e+04 -3.25679707e+04 -8.61569922e+03
      -7.38617920e+02 1.82976477e+03 1.65465059e+04 -5.34579922e+04
      -1.98745020e+04 -8.63045020e+03 -4.43727383e+04 1.82480820e+04
      -3.11615869e+03 2.53611465e+04 -2.35926113e+04 -3.35434492e+04
      -1.86007715e+04 -4.24157227e+04 1.08001621e+04 1.74933502e+02
      2.59141680e+04 2.24398164e+04 1.86231406e+04 -2.11638223e+04
      3.24412852e+04 9.82777539e+03 1.71103242e+04 -2.17357246e+04
      1.01767266e+04 -1.89073418e+04 2.45445938e+04 1.47018535e+04
      8.72568555e+03 2.13460898e+04 4.38554961e+04 -5.08573750e+04
      4.22967871e+03 3.38199258e+04 -2.27732207e+04 3.32902305e+04
      1.87888496e+04 1.57225479e+04 -5.23577539e+04 2.11981934e+04
      1.29363789e+04 -4.29458711e+04 -3.42193203e+04 4.87005273e+04
      2.67036211e+04 -2.03132676e+04 4.99025293e+03 2.32730527e+04
      7.17650000e+03 -3.65239478e+03 3.02808789e+03 -4.65514648e+04
      1.46668066e+04 4.81243750e+03 -3.26589473e+04 3.92874883e+04
      -3.18923008e+04 1.43122773e+04 1.51238428e+04 -1.92907617e+04
      1.02530791e+04 -3.37461602e+04 -2.35422539e+04 1.91535488e+04
      -3.11615869e+03 -2.76589414e+04 -1.95155859e+04 -2.86816152e+04
      -4.36152109e+04 2.85086719e+04 2.57485703e+04 -6.11647852e+03
      -1.87182969e+04 -1.58854688e+04 2.04085020e+04</_>
    <_>
      3.77234922e+04 -9.37897363e+03 -3.35123608e+03 -4.31907891e+04
      2.51717246e+04 8.89341797e+03 2.91976875e+04 -2.41220059e+04
      8.49138867e+03 8.78747949e+03 -3.81941406e+03 1.40099697e+04
      -1.84623574e+04 3.55569414e+04 1.19683057e+04 -2.56266270e+04
      -1.76640566e+04 1.25853525e+04 -3.77261328e+04 3.12191934e+04
      -5.69205156e+04 -1.82013945e+04 2.22446895e+04 -2.79731797e+04
      3.97074570e+04 2.30981113e+04 -2.57512480e+04 1.76353906e+04
      7.94525391e+03 3.17714531e+04 1.68417441e+04 -2.95301680e+04
      3.96021698e+02 4.64425098e+03 5.19617383e+03 2.42389062e+04
      2.85292930e+04 2.74407031e+04 -7.36509717e+03 -3.29533711e+04
      1.80838008e+04 -3.13379512e+04 1.63603369e+04 -4.14221211e+04
      2.88535117e+04 2.00601406e+04 -6.61242578e+04 3.12101440e+03
      -2.66397012e+04 -1.02164961e+04 -7.02265137e+03 -3.45467188e+04
      2.31113320e+04 9.71340723e+03 2.07829043e+04 2.37558496e+04
      -2.49219023e+04 -1.39362197e+04 4.86116846e+03 1.25786367e+04
      2.28186289e+04 -1.45322227e+04 -1.53925977e+04 -3.04835273e+04
      3.34629248e+03 1.94592676e+04 -2.23665723e+04 2.83221152e+04
      -1.54089180e+04 -3.16587168e+04 1.51597441e+04 5.19289307e+03
      4.46495068e+03 2.20249082e+04 -1.00796641e+04 -3.29434424e+03
      -4.80846328e+04 1.87258574e+04 4.30408750e+04 -2.06123691e+04
      -1.47722637e+04 -1.44120645e+04 3.01412891e+04 -1.28479600e+04
      -1.19404556e+02 1.32484863e+04 1.44461221e+04 -1.22375020e+04
      2.57425366e+03 -3.10430723e+04 -2.19023242e+03 1.26901836e+04
      -8.52092676e+03 -4.52988398e+04 -1.48410566e+04 -1.94590430e+04
      -2.45878945e+04 -2.83789395e+04 2.20523359e+04 2.77054570e+04
      -3.49628594e+04 2.49010977e+04 -4.29731797e+04 1.34218662e+04
      2.61494766e+04 6.80549854e+03 2.04506328e+04 -2.00261895e+04
      5.89407861e+03 3.92410039e+04 -5.08987695e+03 2.73453398e+04
      -3.38128516e+04 -3.47866211e+04 1.54830293e+04 7.49482666e+03
      2.33673223e+04 2.61568496e+04 -1.83405586e+04 1.82145625e+04
      2.84447734e+04 4.12429688e+03 1.45293066e+04 -3.20645825e+03
      1.79420293e+04 -6.17446582e+03 -6.27672949e+03 3.58223320e+04
      2.81534609e+04 3.25408906e+04 2.03029258e+04 1.87828259e+03
      -2.53397812e+04 -2.87891719e+04 -1.07579170e+04 -2.15180981e+03
      -1.13818340e+04 1.61866836e+04 2.62565674e+03 -1.69390566e+04
      -5.23840186e+03 -7.56279297e+03 2.78967148e+04 5.75458740e+03
      -2.64109805e+04 -2.41209512e+04 -2.46897974e+03 -1.88026367e+04
      -1.17316055e+04 -2.65433281e+04 -3.70038906e+04 3.93584297e+04
      3.63880820e+04 -1.62122285e+04 -2.84946465e+04 9.87873535e+03
      -1.25127588e+04 -1.17874785e+04 -1.27289990e+04 2.53050391e+04
      1.74401035e+04 -1.24948115e+04 1.21779424e+04 2.24574102e+04
      -3.31116875e+04 2.36305781e+04 -5.34079297e+04 -6.07286914e+03
      -5.67871826e+03 3.09611758e+04 1.25425918e+04 -3.71777695e+04
      3.29956445e+04 -9.34596484e+03 1.63983457e+04 3.15520039e+04
      2.27835508e+04 -4.54063477e+04 -1.73262500e+03 2.82616133e+04
      -7.79411328e+03 -1.69919617e+03 2.14543770e+04 -5.33957617e+04
      2.66374961e+04 3.46730176e+03 -2.82530542e+03 1.94192070e+04
      -1.00126172e+04 4.94858477e+04 -3.32119727e+04 -9.86469922e+03
      -1.37761792e+03 -1.80623523e+03 1.99785059e+04 -4.81579922e+04
      -1.27725020e+04 -9.24845020e+03 -4.78517383e+04 1.87670820e+04
      -1.95015881e+03 2.47781465e+04 -2.82586113e+04 -3.61454492e+04
      -1.60877715e+04 -3.78507227e+04 1.20521621e+04 -1.46006653e+03
      3.07751680e+04 2.50218164e+04 2.00601406e+04 -2.11238223e+04
      3.67272852e+04 9.22477539e+03 8.87032422e+03 -2.15287246e+04
      7.77272656e+03 -1.81573418e+04 2.55675938e+04 1.82718535e+04
      6.42268506e+03 2.52050898e+04 4.90974961e+04 -5.41393750e+04
      9.70678467e+02 3.00169258e+04 -2.59892207e+04 3.16362285e+04
      2.39978496e+04 1.70965469e+04 -4.83447539e+04 2.23351934e+04
      1.15083789e+04 -3.54438711e+04 -3.35433203e+04 5.20075273e+04
      2.80346211e+04 -2.05032676e+04 1.87325305e+03 2.08070527e+04
      5.93450000e+03 -2.17639478e+03 5.40908789e+03 -4.31234648e+04
      1.37148066e+04 6.72043750e+03 -3.39259453e+04 4.74644883e+04
      -3.61583008e+04 2.43832773e+04 1.09818428e+04 -1.68657617e+04
      7.46007910e+03 -3.36911602e+04 -1.71142539e+04 9.21554883e+03
      -1.95015881e+03 -2.88789414e+04 -1.72535859e+04 -3.54966133e+04
      -4.51372109e+04 2.92586719e+04 3.13645703e+04 -1.17874785e+04
      -2.18532969e+04 -1.60724688e+04 2.19555020e+04</_>
    <_>
      3.55624922e+04 -2.85097388e+03 1.39067637e+04 -5.92837891e+04
      3.42927266e+04 2.85434180e+04 2.85846875e+04 -3.88040039e+04
      2.31023887e+04 4.91847949e+03 3.41558594e+03 1.94469707e+04
      -3.25663574e+04 4.02439414e+04 1.21963057e+04 -2.97806270e+04
      -1.94810566e+04 1.58423525e+04 -5.38911328e+04 3.04431934e+04
      -6.20515156e+04 -3.13003945e+04 2.99996895e+04 -2.33421797e+04
      4.58804570e+04 3.03951113e+04 -5.47412461e+04 2.21963906e+04
      1.05362539e+04 3.27794531e+04 2.41387441e+04 -5.36361680e+04
      6.68402148e+03 4.35925098e+03 6.39217383e+03 2.84079062e+04
      2.54232930e+04 3.35597031e+04 -1.15560977e+04 -5.52953711e+04
      1.85858008e+04 -4.07969531e+04 4.08213359e+04 -6.66731250e+04
      2.85165117e+04 2.10661406e+04 -8.17942578e+04 3.19901440e+03
      -5.30087031e+04 -2.39049609e+03 -1.97166504e+04 -4.80227188e+04
      2.96163320e+04 1.29124072e+04 2.26579043e+04 3.58808477e+04
      -2.42849023e+04 -1.06422197e+04 1.03631689e+04 3.45706367e+04
      2.51766289e+04 -1.13492227e+04 -3.25355977e+04 -2.26755293e+04
      1.30502920e+04 4.53252695e+04 -4.44665742e+04 3.20281152e+04
      -8.14991797e+03 -5.51457188e+04 1.38637441e+04 3.16789307e+03
      2.80949512e+04 2.87179082e+04 -9.01664368e+02 6.53865576e+03
      -6.99876328e+04 2.65378574e+04 5.36978750e+04 -1.15733691e+04
      -2.85712637e+04 -1.08420645e+04 2.94942891e+04 -6.01795996e+03
      1.34545957e+04 1.18564863e+04 4.07761211e+04 -2.86975020e+04
      8.85125391e+03 -3.81510742e+04 -2.67423242e+03 1.62001836e+04
      -4.07292676e+03 -4.33268398e+04 -2.55970566e+04 -1.01630439e+04
      -3.13668945e+04 -3.45339414e+04 3.05273359e+04 3.49824570e+04
      -4.69498594e+04 2.98050977e+04 -6.32691797e+04 1.08678662e+04
      3.58944766e+04 1.47834990e+04 2.90046328e+04 -5.93718896e+03
      1.41080791e+04 5.53430039e+04 5.28712305e+03 2.84413398e+04
      -3.34638516e+04 -5.82656211e+04 2.14340293e+04 1.51688262e+04
      1.25283232e+04 3.09118496e+04 -3.12065586e+04 4.09815625e+04
      2.88057734e+04 5.38729688e+03 3.73993047e+04 -1.49245825e+03
      1.99330293e+04 7.10653418e+03 1.46427063e+03 3.82463320e+04
      3.42614609e+04 2.88918906e+04 2.80049277e+04 6.70428271e+03
      -3.24757812e+04 -4.82781719e+04 -1.09229170e+04 9.40619043e+03
      -1.09518340e+04 1.44626836e+04 1.66465674e+03 -3.03250566e+04
      1.35559790e+03 -6.22979297e+03 3.38667148e+04 8.62258789e+03
      -2.10819805e+04 -4.23569492e+04 -2.39597974e+03 -3.48196367e+04
      -1.65716055e+04 -3.51113281e+04 -5.60848906e+04 4.08094297e+04
      3.30490820e+04 -6.70622900e+03 -4.90466484e+04 1.60707354e+04
      -9.11075879e+03 -3.20647852e+03 -2.27819980e+04 3.15000391e+04
      2.47521035e+04 -2.89098105e+04 2.22394189e+03 2.81554102e+04
      -5.71906875e+04 2.64915781e+04 -7.26909297e+04 3.32713086e+03
      4.72817459e+01 3.50231758e+04 1.52315918e+04 -5.22547695e+04
      3.14566426e+04 1.40803552e+03 2.31043457e+04 3.79690039e+04
      2.83505508e+04 -7.18303516e+04 -1.41616250e+04 3.33416133e+04
      -1.61211133e+04 -5.10819629e+03 1.75853770e+04 -8.51647578e+04
      2.79844961e+04 -1.53769824e+03 1.78369458e+03 2.55192070e+04
      5.58738281e+03 6.58118438e+04 -4.89739727e+04 -8.14469873e+03
      5.28838232e+03 3.04076465e+03 2.21175059e+04 -6.93389922e+04
      4.38498077e+02 2.05454980e+03 -7.20777344e+04 2.12880820e+04
      1.17084119e+03 3.43021445e+04 -4.97976094e+04 -4.28164492e+04
      -2.13847715e+04 -3.37727227e+04 8.82016211e+03 7.25093359e+03
      4.06971680e+04 2.68608164e+04 2.10661406e+04 -3.32258203e+04
      4.04662852e+04 1.27557764e+04 1.36823242e+04 -3.34037266e+04
      1.10027266e+04 -4.03233438e+04 3.36755938e+04 1.34208535e+04
      1.10116855e+04 3.46710898e+04 7.80235000e+04 -8.55043750e+04
      1.04186787e+04 3.81959258e+04 -1.75182207e+04 3.33402305e+04
      2.49008496e+04 4.43695469e+04 -6.17907539e+04 2.40701934e+04
      1.01163789e+04 -5.44098711e+04 -4.16603203e+04 6.08375273e+04
      3.13656211e+04 -1.71372676e+04 -8.38746948e+02 1.79040527e+04
      1.25655000e+04 4.35605347e+02 8.98108789e+03 -3.86084648e+04
      3.36998047e+04 1.08734375e+04 -4.48659453e+04 6.00734883e+04
      -5.41333008e+04 2.67092773e+04 7.95184229e+03 -3.03197617e+04
      1.27610791e+04 -4.91271602e+04 -2.16632539e+04 1.76865488e+04
      1.17084119e+03 -5.70439414e+04 -1.42805859e+04 -5.12366133e+04
      -6.06402109e+04 2.68206719e+04 4.26145703e+04 -3.20647852e+03
      -2.92812969e+04 -1.38214688e+04 2.88925020e+04</_>
    <_>
      3.08164902e+04 -1.67539746e+04 -2.65323608e+03 -3.43267891e+04
      2.64237246e+04 1.15234180e+04 2.07036875e+04 -2.05360059e+04
      2.30038818e+03 3.55947925e+03 -8.37641406e+03 1.77059707e+04
      -5.48035742e+03 3.43599414e+04 2.78030615e+03 -2.51286270e+04
      -1.87400566e+04 1.23843525e+04 -4.54201367e+04 3.95611914e+04
      -3.26265156e+04 -9.34539355e+03 1.86336895e+04 -3.81971797e+04
      5.31484570e+04 2.07991113e+04 -1.08492471e+04 2.21413906e+04
      7.38125391e+03 2.42824531e+04 2.24817441e+04 -1.66411680e+04
      -5.32097852e+03 3.30825122e+03 1.30841738e+04 2.54709062e+04
      2.49392930e+04 3.53797031e+04 -1.90760977e+04 -4.08143711e+04
      2.39238008e+04 -2.68449512e+04 1.42603369e+04 -2.57371211e+04
      1.71705117e+04 2.62721406e+04 -5.51372617e+04 9.61901367e+03
      -1.25387021e+04 -1.72634961e+04 1.32334875e+03 -4.57387188e+04
      2.94313320e+04 2.00094062e+04 1.90749043e+04 1.92208496e+04
      -2.20719023e+04 -1.41642197e+04 -1.62883167e+03 1.21956367e+04
      1.74636289e+04 -2.29462227e+04 -1.21835977e+04 -1.66195293e+04
      -2.22470776e+03 1.52382676e+04 -6.28457275e+03 2.80641152e+04
      -1.51999180e+04 -2.42337168e+04 5.64274414e+03 1.13348926e+04
      9.24995020e+03 2.88419082e+04 -2.52856641e+04 -5.43834424e+03
      -5.50796328e+04 2.40668574e+04 2.37758770e+04 -2.39383691e+04
      -6.18826318e+03 -1.55950645e+04 2.35972891e+04 -1.34489600e+04
      -3.81940479e+03 1.35814863e+04 1.42891221e+04 -1.44785020e+04
      1.99725354e+03 -2.99550723e+04 6.87767395e+02 1.43001836e+04
      -2.52092676e+03 -3.20988418e+04 -4.37005664e+03 -2.33410430e+04
      -1.74548945e+04 -3.77429414e+04 3.01713359e+04 3.10694570e+04
      -2.67428574e+04 3.24680977e+04 -3.87601797e+04 7.69686621e+03
      3.06254766e+04 6.36449854e+03 2.45056328e+04 -2.12291895e+04
      -1.89892090e+03 1.99420020e+04 -1.36578770e+04 3.65423398e+04
      -2.20628516e+04 -2.03526191e+04 1.82560293e+04 1.58328262e+04
      3.52483242e+04 2.77748496e+04 -1.98285586e+04 9.24556348e+03
      1.46537734e+04 1.07002969e+04 1.23983066e+04 -1.45694580e+04
      5.79202930e+03 -8.56746582e+03 -1.37837295e+04 2.17713301e+04
      2.21994609e+04 2.63638906e+04 2.12019258e+04 1.18452822e+04
      -3.72427812e+04 -3.66941719e+04 -1.91639180e+04 -5.44181006e+03
      -2.42978340e+04 1.50216836e+04 7.56565674e+03 -1.10330576e+04
      -1.35834023e+04 -1.57197930e+04 2.54937148e+04 2.16358740e+03
      -3.81819805e+04 -1.00929512e+04 -1.70579805e+04 -8.56263672e+03
      -5.44960498e+03 -2.31113281e+04 -3.35068906e+04 3.26504277e+04
      2.82640801e+04 -1.18442285e+04 -2.11056465e+04 3.57735504e+02
      -1.53357588e+04 -1.16954785e+04 -1.87839980e+04 2.56940391e+04
      1.61441035e+04 -8.32381152e+03 4.09294165e+03 2.68964102e+04
      -3.74286875e+04 2.26665781e+04 -5.45009297e+04 -1.69158691e+04
      -1.46697188e+04 2.90351758e+04 2.05145918e+04 -3.18557695e+04
      1.94026426e+04 -1.05209648e+04 2.13083457e+04 2.67180039e+04
      2.17965508e+04 -4.15503477e+04 -1.21656250e+04 3.68136133e+04
      -4.37811328e+03 -3.25119604e+03 2.25823770e+04 -3.93647617e+04
      2.18124961e+04 -9.54698486e+02 -7.97830518e+03 2.94082070e+04
      -1.07646172e+04 4.52918477e+04 -3.53179727e+04 -8.25169824e+03
      -1.23106182e+04 -5.11823486e+03 2.20905059e+04 -4.57139922e+04
      -2.34255020e+04 -2.09064512e+04 -3.29197383e+04 8.88008203e+03
      -1.27091592e+04 2.65781465e+04 -1.38146104e+04 -3.01244473e+04
      -2.52277715e+04 -2.07727207e+04 9.53016211e+03 -1.08820664e+04
      4.74631680e+04 1.65118164e+04 2.62721406e+04 -8.81282227e+03
      2.17362852e+04 1.13467764e+04 1.23833242e+04 -8.00572510e+03
      1.80287266e+04 -1.41273428e+04 2.74385938e+04 8.55785352e+03
      3.74268530e+03 4.08050898e+04 5.32424961e+04 -4.10563750e+04
      -4.05832153e+03 2.15689258e+04 -2.36842207e+04 2.91462285e+04
      2.56558496e+04 2.69854761e+03 -4.93507539e+04 1.33021934e+04
      1.54293789e+04 -2.87078730e+04 -3.11593203e+04 4.34455273e+04
      3.04186211e+04 -2.17972676e+04 7.27225293e+03 2.49970527e+04
      4.40450000e+03 -2.14343945e+04 1.01910879e+04 -1.65774629e+04
      1.02858066e+04 -4.68256250e+03 -2.85939473e+04 2.73154863e+04
      -2.82263008e+04 2.42542773e+04 7.42484229e+03 -2.76497617e+04
      6.49078918e+02 -2.02441602e+04 -1.84792539e+04 1.18575479e+04
      -1.27091592e+04 -3.06249414e+04 -3.57185859e+04 -2.56886152e+04
      -4.01862109e+04 2.24016719e+04 5.20345703e+04 -1.16954785e+04
      -2.80092969e+04 -1.55964697e+04 2.85295020e+04</_>
    <_>
      1.72614902e+04 -1.71779746e+04 -2.97102363e+04 -3.93107891e+04
      2.73647246e+04 -2.63265820e+04 1.42686875e+04 -2.09650059e+04
      -3.86661157e+03 9.06747949e+03 -3.22541382e+03 5.56197021e+03
      -1.49723574e+04 4.34899414e+04 1.75930603e+03 -7.96562695e+03
      -1.67010566e+04 -2.88064771e+03 -2.03201348e+04 3.28891914e+04
      -2.16735156e+04 -6.03439355e+03 7.40569043e+03 -4.05171797e+04
      2.01934570e+04 1.96061113e+04 -2.04982480e+04 6.02539111e+03
      1.87312539e+04 1.79424531e+04 2.00387441e+04 -2.10521680e+04
      -1.27809785e+04 1.97482520e+04 4.88617383e+03 2.32589062e+04
      2.36582930e+04 4.11707031e+04 -2.05500977e+04 -1.41133711e+04
      2.66928008e+04 2.33820488e+04 -1.16436631e+04 -2.68951211e+04
      6.35551172e+03 3.91731406e+04 -2.48552617e+04 -2.72698560e+03
      -1.24837021e+04 -1.74094961e+04 -9.89165137e+03 -2.36147207e+04
      2.52733320e+04 1.84194062e+04 2.52899043e+04 1.24658496e+04
      -2.37559023e+04 -3.35192188e+04 -1.26988320e+04 3.21636749e+02
      8.45262891e+03 -2.70472227e+04 2.69244023e+04 -2.81485273e+04
      -1.50037070e+04 -1.07197314e+04 -8.67757324e+03 3.65241172e+04
      -2.72959180e+04 -4.43171680e+03 2.19427441e+04 1.12768926e+04
      -1.06230488e+04 1.94779082e+04 -2.74266641e+04 -2.19953438e+04
      -1.93616348e+04 3.13708574e+04 2.39738770e+04 -2.96423691e+04
      -5.50226416e+03 -2.03620645e+04 2.01092891e+04 -2.02449609e+04
      -2.04474043e+04 1.19604863e+04 -1.04398779e+04 6.39649756e+03
      -4.91874609e+03 -7.06907324e+03 2.35247676e+04 2.22321836e+04
      -1.22009268e+04 -4.73884131e+03 -1.35530566e+04 -3.59760430e+04
      -9.12689551e+03 -2.61579395e+04 2.36253359e+04 3.20914570e+04
      -2.76358574e+04 2.32130977e+04 -6.93218018e+03 1.82486646e+03
      2.68524766e+04 -1.46775010e+04 2.07746328e+04 -2.44551895e+04
      -1.52739209e+04 6.96002502e+02 -1.67178770e+04 5.08543398e+04
      -2.63888516e+04 -4.81161914e+03 8.82903027e+03 -3.99917334e+03
      1.45533232e+04 2.38978496e+04 -2.20935586e+04 -2.13214375e+04
      1.06577734e+04 1.23642969e+04 -1.48246943e+04 -2.09544590e+04
      2.81270293e+04 -2.04984648e+04 -2.28747305e+04 7.55033008e+03
      2.74614609e+04 3.43998906e+04 2.88429258e+04 3.19028247e+03
      -1.99357812e+04 -1.32701709e+04 -2.03359180e+04 -8.17180957e+03
      -2.36588340e+04 1.62886836e+04 6.30656860e+02 -2.18205786e+03
      -1.49854023e+04 -2.03307930e+04 3.17977148e+04 1.82855879e+04
      -4.52069805e+04 -6.58995068e+03 -4.04369805e+04 -9.58763672e+03
      8.14394653e+02 2.62586699e+04 -9.38288965e+03 2.81854277e+04
      5.36750820e+04 -7.26222852e+03 -7.37664697e+03 -1.85326453e+03
      -1.75537578e+04 -2.60044785e+04 -1.87769980e+04 2.84240391e+04
      2.19771035e+04 -2.07281128e+03 3.45649414e+04 2.57154102e+04
      -1.12826895e+04 1.94185781e+04 -1.38859277e+04 -2.50588691e+04
      -1.74637188e+04 2.85041758e+04 2.60085918e+04 -2.18997695e+04
      3.37316445e+04 -2.57799648e+04 2.83743457e+04 2.53880039e+04
      1.61615518e+04 -1.58063486e+04 2.59163750e+04 4.44356133e+04
      -2.13471133e+04 -1.70141953e+04 1.95583770e+04 -2.85547617e+04
      2.90724961e+04 -3.36982727e+01 -1.42773057e+04 2.63772070e+04
      -2.06846172e+04 2.82128457e+04 -2.50659707e+04 -6.59069873e+03
      -2.07586172e+04 -2.80462344e+04 2.96455059e+04 -2.21249922e+04
      -2.67565020e+04 -1.48704502e+04 -2.83107363e+04 3.07150820e+04
      -2.89051582e+04 2.22381465e+04 1.90633887e+04 -2.66564473e+04
      -2.36667715e+04 -1.54357207e+04 -6.58583838e+03 -4.42606689e+03
      1.42121680e+04 2.37168164e+04 3.91731406e+04 1.92651777e+04
      2.19192852e+04 1.68467754e+04 -9.85967578e+03 1.28732754e+04
      2.39907266e+04 2.17416582e+04 2.35895938e+04 1.13698535e+04
      -7.34031494e+03 2.07400898e+04 2.58044961e+04 6.70624329e+02
      -2.39383223e+04 1.01169248e+04 -3.16902207e+04 1.56342295e+04
      2.86908496e+04 -1.41894521e+04 -3.78597539e+04 2.86081934e+04
      4.61363789e+04 -1.57818730e+04 -2.53553203e+04 3.06905273e+04
      2.75556211e+04 -1.06212686e+04 2.40612539e+04 2.08470527e+04
      -7.98650000e+03 -2.34143945e+04 2.76260879e+04 -1.70454629e+04
      -2.46819336e+03 -1.47825625e+04 -2.02919473e+04 1.67664863e+04
      -1.39562998e+04 2.61302773e+04 2.57088418e+04 -2.40527617e+04
      -1.38409209e+04 -4.00711602e+04 -1.76462539e+04 -3.23451569e+02
      -2.89051582e+04 -2.31194116e+03 -3.73345859e+04 -3.92061499e+03
      -1.14442109e+04 1.85576719e+04 3.20275703e+04 -2.60044785e+04
      -4.06702969e+04 -2.10474688e+04 2.26715020e+04</_>
    <_>
      2.03444902e+04 1.43570264e+04 -1.04392363e+04 -3.03677891e+04
      2.49987246e+04 3.05241772e+03 -7.59331201e+03 -1.50800049e+04
      2.28238818e+03 -1.35452075e+03 1.24985859e+04 9.04970032e+02
      5.68664258e+03 3.09349395e+04 -4.96939011e+01 -2.70766270e+04
      -1.98550566e+04 5.56135205e+03 -4.11831328e+04 2.53241934e+04
      -1.86595156e+04 -6.75039404e+03 1.87376895e+04 -4.14591797e+04
      3.39264570e+04 2.36861113e+04 -3.09124731e+03 1.91633906e+04
      1.06452539e+04 1.38684521e+04 1.99157441e+04 -1.61016772e+03
      1.73480215e+04 1.07112510e+04 1.51681738e+04 1.59419072e+04
      4.32129248e+03 2.44937031e+04 -3.91770977e+04 -3.41423711e+04
      1.54637998e+04 -1.91849512e+04 1.70033359e+04 -2.85571211e+04
      -1.06164883e+04 3.65731406e+04 -3.57052617e+04 4.77001416e+03
      -3.73237031e+04 3.32550391e+03 2.17734863e+03 -4.39297188e+04
      2.41583320e+04 2.55434062e+04 2.19529043e+04 1.65498496e+04
      -2.76389023e+04 2.01077991e+03 1.05851680e+04 2.04986367e+04
      1.38156289e+04 -2.41552227e+04 -1.59195967e+04 -3.60528320e+02
      8.19729199e+03 1.72432676e+04 -3.61915742e+04 2.02491152e+04
      -4.23691797e+03 -2.00227168e+04 3.84674414e+03 1.23068936e+04
      1.65419512e+04 2.17199082e+04 -2.29406641e+04 -4.61534424e+03
      -4.42886328e+04 3.11138555e+04 1.90198770e+04 7.72563086e+03
      6.69736328e+02 -1.98760645e+04 -7.80711487e+02 -1.53949600e+04
      -9.56040430e+03 1.33064863e+04 2.24581230e+04 -9.12750195e+03
      1.72492539e+04 -2.84440723e+04 3.16767676e+04 1.74671836e+04
      -1.37799268e+04 8.95158447e+02 7.19943115e+02 -2.09690430e+04
      -2.06598945e+04 -3.55889414e+04 3.13723359e+04 2.33364570e+04
      -2.32598574e+04 2.31070977e+04 -2.87421797e+04 7.02086621e+03
      2.36444766e+04 1.62324990e+04 2.70016328e+04 1.10128105e+04
      -1.98749219e+04 1.68820020e+04 -9.33887695e+03 4.11653398e+04
      -2.56368516e+04 -3.94216211e+04 2.17650293e+04 1.65188262e+04
      1.92213223e+04 2.07748496e+04 -2.40595586e+04 4.16356348e+03
      -6.78222607e+03 1.48882969e+04 3.56130640e+03 -1.19314580e+04
      4.53602930e+03 1.79925332e+04 1.65527051e+03 7.61633057e+03
      2.50994609e+04 1.48318896e+04 3.87009258e+04 -5.97175789e+01
      -4.38067812e+04 -6.30501719e+04 3.40827293e+01 -9.45280957e+03
      -1.01988340e+04 1.23146836e+04 1.71836562e+04 2.97594238e+03
      1.98005977e+04 9.94207275e+02 1.71607148e+04 1.05985879e+04
      -4.52079805e+04 -5.46895068e+03 -2.65489805e+04 8.85363464e+02
      -3.69605194e+02 -4.76132910e+03 -4.05578906e+04 -1.14757178e+03
      3.59250820e+04 2.24857715e+04 -5.30386484e+04 1.72077363e+04
      1.19142412e+04 -2.15454785e+04 -2.22769980e+04 2.42350391e+04
      2.43761035e+04 -4.70381104e+03 -3.09005811e+03 2.02404102e+04
      -6.52966875e+04 1.95635781e+04 -3.57809258e+04 3.01313086e+03
      5.42228174e+03 2.11731758e+04 2.42735918e+04 -4.80857695e+04
      5.84643250e+02 -3.23964508e+02 1.84673457e+04 1.68870039e+04
      1.59745518e+04 -4.85783477e+04 -1.76106250e+04 2.26866133e+04
      -1.58321133e+04 -1.90319617e+03 1.56703760e+04 -3.11387617e+04
      1.54314951e+04 1.95130164e+03 1.24826943e+04 2.35432070e+04
      -9.11561719e+03 3.85398477e+04 -4.30139727e+04 3.77730127e+03
      1.47153818e+04 -6.34723535e+03 3.08405059e+04 -4.31529922e+04
      -2.09215020e+04 -1.34645020e+03 -2.92537363e+04 6.84408154e+03
      -1.26901592e+04 1.42391465e+04 -3.87336094e+04 -3.08024473e+04
      -4.37037734e+04 -7.07372070e+03 1.96816187e+03 -5.69066467e+02
      4.21771680e+04 5.28581641e+03 3.65731406e+04 -2.48882227e+03
      -4.78071533e+03 1.07217764e+04 -1.25716758e+04 -2.75872510e+03
      2.19257266e+04 -1.71634253e+03 2.34055938e+04 3.68485327e+03
      -3.90631470e+03 3.90740898e+04 5.94724961e+04 -2.49493750e+04
      6.32067871e+03 5.23692480e+03 -2.19622095e+03 -8.29770691e+02
      3.89688516e+04 4.73554785e+03 -3.32907539e+04 1.55871934e+04
      2.94843789e+04 -3.98968711e+04 -3.66493203e+04 3.65285273e+04
      1.88676211e+04 3.40473218e+03 1.10052529e+04 1.10930537e+04
      1.41765000e+04 -4.19653945e+04 3.56970898e+04 2.86953662e+03
      8.56080664e+03 1.80064375e+04 -3.21609473e+04 2.26514863e+04
      -5.67833008e+04 1.10822773e+04 -8.93715723e+03 -5.35607617e+04
      1.03410791e+04 -2.97971602e+04 -4.82925293e+03 3.12854834e+03
      -1.26901592e+04 -3.91879414e+04 -3.00605859e+04 -2.76016152e+04
      -3.02432109e+04 3.28367139e+03 4.68275703e+04 -2.15454785e+04
      -2.56522969e+04 -3.46546899e+03 2.47605020e+04</_>
    <_>
      4.08254922e+04 -1.81759746e+04 -1.74892363e+04 -2.87737891e+04
      2.19817246e+04 -6.36258252e+03 2.77286875e+04 -1.72500059e+04
      -9.37661133e+03 1.27434795e+04 -1.31734141e+04 1.77319707e+04
      -1.63023574e+04 3.01509395e+04 8.53830566e+03 -1.99426270e+04
      -1.58160557e+04 6.69635205e+03 -2.76161348e+04 3.73991914e+04
      -4.68205156e+04 -1.53163936e+04 1.77396895e+04 -3.44991797e+04
      4.50634570e+04 2.40351113e+04 -6.08224707e+03 1.16643916e+04
      1.15832539e+04 3.04074531e+04 1.56297441e+04 -1.09871680e+04
      -8.28297852e+03 9.85425098e+03 -2.65582593e+03 2.17109062e+04
      3.01152930e+04 2.65527031e+04 -1.31209741e+03 -2.48803711e+04
      2.59958008e+04 -1.84709512e+04 -4.37366309e+03 -2.05921211e+04
      2.74645117e+04 2.20861406e+04 -3.23712617e+04 7.55501416e+03
      -2.01287031e+04 -2.71754961e+04 -7.81965137e+03 -1.96747207e+04
      2.14443320e+04 1.32934072e+04 1.70589043e+04 1.80928496e+04
      -2.12559023e+04 -1.93672207e+04 -2.06283154e+03 -7.92036328e+03
      1.45156289e+04 -2.22362227e+04 -2.26759717e+03 -4.10915273e+04
      -6.04970752e+03 -3.25373193e+03 -1.21745723e+04 2.43781152e+04
      -2.09019180e+04 -1.30547168e+04 1.89727441e+04 -5.36210693e+03
      -1.48210498e+04 2.19579082e+04 -1.48606641e+04 -1.05603447e+04
      -2.10766348e+04 1.36988564e+04 3.62648750e+04 -2.55183691e+04
      -4.17126367e+03 -4.10906494e+03 3.02032891e+04 -1.50299600e+04
      -7.11440430e+03 1.17644863e+04 -6.69787744e+03 -5.62550195e+03
      -4.19374609e+03 -2.12020723e+04 1.73576733e+03 8.68018359e+03
      -1.04589268e+04 -5.07378398e+04 -1.45710566e+04 -3.57770430e+04
      -1.78568945e+04 -2.68089395e+04 1.99143359e+04 2.26034570e+04
      -2.54498574e+04 2.61010977e+04 -2.94361797e+04 1.33828662e+04
      2.26104766e+04 -1.04250134e+03 1.62036328e+04 -2.66641895e+04
      -3.74892114e+03 3.02060020e+04 -6.29887646e+03 3.29433398e+04
      -3.26788516e+04 -2.29306191e+04 1.18150303e+04 5.22582666e+03
      4.11973242e+04 2.23478496e+04 -1.79565586e+04 -3.25443677e+03
      2.38237734e+04 -1.05417031e+04 -5.66969385e+03 -8.90745801e+03
      1.06330293e+04 -1.57234658e+04 -1.75267285e+04 3.57563320e+04
      2.29774609e+04 2.95678906e+04 1.98519258e+04 3.78828247e+03
      -1.61197822e+04 -2.00231719e+04 -1.75139180e+04 -5.81280957e+03
      -1.75428340e+04 1.95168408e+03 -4.72034326e+03 -1.65570566e+04
      -1.35024023e+04 -1.35797930e+04 2.31287148e+04 9.28658789e+03
      -3.27569805e+04 -1.80879512e+04 -3.27697974e+03 -1.81836367e+04
      -6.61960498e+03 -1.00713291e+04 -2.45428906e+04 3.86604297e+04
      2.78170801e+04 -2.16752285e+04 -7.17664746e+03 -2.41326440e+03
      -1.79847578e+04 -1.32734785e+04 -1.63809990e+04 2.11510391e+04
      1.40291035e+04 -1.31918115e+04 2.27449414e+04 1.81564102e+04
      -2.11736895e+04 2.18295781e+04 -2.61699277e+04 -1.53138691e+04
      -1.69357188e+04 3.10531758e+04 1.44275918e+04 -2.82887695e+04
      4.13116445e+04 -1.63119648e+04 1.17493467e+04 2.56390039e+04
      1.93775508e+04 -3.18053496e+04 7.50037500e+03 2.76366133e+04
      -4.95211328e+03 9.59803894e+02 2.57933770e+04 -3.29347617e+04
      3.07314961e+04 6.60730176e+03 -1.38983057e+04 1.79162070e+04
      -2.85526172e+04 3.57318477e+04 -1.98009707e+04 -6.17669873e+03
      -1.18426182e+04 -9.40723535e+03 2.28335059e+04 -3.17669922e+04
      -2.94425020e+04 -2.29364512e+04 -2.60047363e+04 1.25910820e+04
      -4.62615869e+03 2.31741465e+04 -5.92161084e+03 -2.65274473e+04
      -8.99177148e+03 -4.46857227e+04 1.36241621e+04 -1.32810664e+04
      3.46361680e+04 2.97578164e+04 2.20861406e+04 -1.01822144e+02
      2.97112852e+04 6.85077588e+03 1.00533242e+04 1.27227490e+03
      1.13647266e+04 -1.21573428e+04 1.92165938e+04 1.47888535e+04
      7.43768506e+03 3.26620898e+04 3.32144961e+04 -3.05103750e+04
      -1.03503213e+04 2.66069258e+04 -3.22872207e+04 3.54232305e+04
      2.42128496e+04 -1.13404521e+04 -4.14567539e+04 1.64681934e+04
      2.05483789e+04 -2.38768730e+04 -2.57233203e+04 4.28505273e+04
      2.63066211e+04 -2.54382676e+04 6.93325293e+03 2.71200527e+04
      -4.68500092e+02 -1.44039465e+03 7.33808789e+03 -4.74284648e+04
      -7.69319336e+03 -4.18156250e+03 -2.29389473e+04 3.90704883e+04
      -9.42329980e+03 3.33842773e+04 1.37328428e+04 -3.53876221e+03
      5.64079041e+02 -2.23551602e+04 -1.48502529e+04 1.10195479e+04
      -4.62615869e+03 -9.06394141e+03 -2.05645859e+04 -2.04846152e+04
      -3.36852109e+04 3.18166719e+04 3.77085703e+04 -1.32734785e+04
      -1.22132979e+04 -1.12674688e+04 2.02205020e+04</_>
    <_>
      -5.10150928e+03 2.52010254e+04 -5.70672344e+04 1.06942119e+04
      -2.04312754e+04 -6.25325820e+04 2.10086875e+04 1.80319941e+04
      -7.07956094e+04 1.80534785e+04 1.97895859e+04 3.71797021e+03
      3.73526406e+04 -6.74805957e+03 1.62643057e+04 1.64953730e+04
      -3.40460547e+04 2.09433516e+04 1.32838652e+04 -1.37788066e+04
      -4.11015156e+04 5.25786055e+04 -1.36530981e+03 -2.76861797e+04
      -4.04915430e+04 -1.72328887e+04 6.07537539e+04 1.55863916e+04
      -9.21274609e+03 -1.18685479e+04 -5.17625586e+03 5.84578320e+04
      2.42370215e+04 8.97251038e+02 1.36821738e+04 -1.70920938e+04
      -2.87870752e+03 -1.58242969e+04 -1.22160977e+04 7.00996328e+04
      -6.42020020e+03 -1.20309521e+04 -7.81326641e+04 3.27358789e+04
      2.34455117e+04 -1.05628584e+04 4.07417383e+04 2.73900137e+04
      4.36202969e+04 2.46575039e+04 2.33993496e+04 6.15827930e+03
      -1.75396680e+04 -4.75593262e+02 -4.90109473e+03 -2.41221504e+04
      -3.44549023e+04 3.00427793e+04 1.86041680e+04 -8.61053672e+04
      6.82562891e+03 -1.60232227e+04 2.77484023e+04 -4.49315273e+04
      1.74622930e+04 -7.79777344e+04 4.23424258e+04 -2.03418848e+04
      1.94760820e+04 3.37622812e+04 -1.21632559e+04 1.32128926e+04
      -8.12980469e+04 -6.47909229e+03 -3.73676641e+04 2.81986562e+04
      3.07413672e+04 -1.83701426e+04 -2.39421230e+04 3.08706309e+04
      2.10607363e+04 -1.13180654e+04 1.78242891e+04 -5.36479609e+04
      -5.41034062e+04 1.30974863e+04 -8.08068750e+04 4.38084961e+04
      1.06342539e+04 -1.48880732e+04 -1.61812324e+04 2.34281836e+04
      -5.47689258e+04 -5.62868398e+04 4.02639414e+04 -4.37760430e+04
      -2.05278945e+04 -9.62594043e+03 -1.62326641e+04 -1.69925430e+04
      -4.65485791e+03 -1.78409023e+04 4.77888203e+04 1.26118662e+04
      -1.20475234e+04 8.57849902e+03 -1.43633672e+04 -3.49321875e+04
      -5.03429219e+04 -2.31189980e+04 -4.66278750e+04 -1.29106592e+04
      -3.04358516e+04 3.37903789e+04 -6.87397021e+03 5.43982666e+03
      -1.21886768e+04 -1.06801504e+04 1.75404414e+04 -6.29824375e+04
      1.44957734e+04 1.51132969e+04 -6.89406953e+04 3.77455430e+04
      8.69029175e+02 1.47515342e+04 2.34102715e+04 5.99633057e+03
      -2.15695391e+04 1.42748896e+04 -1.90740742e+04 -6.74471729e+03
      -1.05027822e+04 3.71818281e+04 3.56090820e+04 -5.64018086e+04
      4.00441641e+04 1.37616836e+04 1.19016572e+04 4.58489414e+04
      2.39495977e+04 2.81942070e+04 -1.82352852e+04 -1.08124131e+04
      -2.49599805e+04 5.40830508e+04 1.33340205e+04 4.01233633e+04
      3.58839478e+03 1.70536699e+04 1.19591104e+04 8.98342773e+03
      -2.28891992e+03 1.42597715e+04 4.77863516e+04 1.96177344e+04
      2.34032422e+04 -2.31404785e+04 40704. -2.18159609e+04
      -6.32289697e+03 2.48551895e+04 1.96719414e+04 -1.14275898e+04
      3.07843105e+04 4.78457910e+03 3.13830723e+04 2.51321309e+04
      2.70922812e+04 -1.22458242e+04 -8.64740820e+03 1.96022998e+03
      -6.81135645e+03 2.11280352e+04 -1.35166533e+04 -2.22169961e+04
      -1.42714482e+04 2.09866504e+04 1.67523750e+04 -1.45873867e+04
      4.42938867e+04 3.76388047e+04 -1.14966230e+04 8.03182422e+04
      -1.96665039e+04 2.26063008e+04 3.25306953e+04 -1.68067930e+04
      -6.52726172e+04 -3.21471543e+04 6.05602881e+03 3.48663008e+04
      2.62433828e+04 3.97757656e+04 -1.13864941e+04 9.84100684e+03
      -5.16165039e+04 2.61575488e+04 3.41542617e+04 -3.49191821e+03
      -6.36158813e+02 -1.07888535e+04 6.59493906e+04 -6.97244775e+03
      -1.30337715e+04 -4.86357227e+04 2.24711621e+04 2.50709336e+04
      -4.89438320e+04 4.03381616e+03 -1.05628584e+04 3.96717798e+03
      1.57252842e+04 9.32377539e+03 4.97532422e+03 2.59027490e+03
      -1.49422734e+04 3.72626562e+04 -5.33040625e+03 1.71338535e+04
      -1.05363145e+04 -4.49449102e+04 -5.82435039e+04 4.81966250e+04
      2.89446777e+04 -2.92207520e+03 9.90377930e+03 2.05252285e+04
      -1.63071494e+04 -7.01004531e+04 -3.42575439e+03 -1.13568066e+04
      -9.77162109e+03 1.13241270e+04 -4.59632031e+03 -3.58294727e+04
      -9.37237891e+03 3.01467324e+04 -6.13074707e+03 -3.83194653e+03
      9.79450000e+03 -2.36373945e+04 -1.57399121e+04 -5.25994648e+04
      -8.05771953e+04 2.28324375e+04 -7.50894727e+03 -2.00535137e+04
      4.80786992e+04 -1.65217227e+04 1.22998428e+04 2.54572383e+04
      1.67530781e+04 1.68908398e+04 -1.15702529e+04 -2.00904512e+04
      -6.36158813e+02 4.41570586e+04 -2.60825859e+04 3.21433848e+04
      4.19707891e+04 -1.11732849e+03 -4.83264297e+04 -2.31404785e+04
      2.02967031e+04 4.15531006e+02 -1.17724980e+04</_>
    <_>
      3.80074922e+04 -9.69497363e+03 -2.88423608e+03 -4.23837891e+04
      2.72857246e+04 1.11664180e+04 2.94756875e+04 -3.09090059e+04
      3.20238818e+03 1.05094795e+04 -3.32041406e+03 1.34919697e+04
      -2.37713574e+04 3.33089414e+04 1.21093057e+04 -2.62476270e+04
      -1.81410566e+04 1.18373525e+04 -3.50551328e+04 3.18581934e+04
      -6.22575156e+04 -1.97893945e+04 2.17136895e+04 -2.36621797e+04
      3.03664570e+04 2.47831113e+04 -3.35162461e+04 1.84833906e+04
      8.64525391e+03 3.21594531e+04 1.99067441e+04 -3.40021680e+04
      1.61302173e+03 4.46425098e+03 3.39817407e+03 2.50249062e+04
      3.08772930e+04 2.97997031e+04 -3.40309741e+03 -4.03633711e+04
      2.10998008e+04 -3.18319512e+04 1.43493369e+04 -4.52111211e+04
      2.93685117e+04 1.91611406e+04 -5.75482617e+04 5.32501416e+03
      -3.85977031e+04 -1.08934961e+04 -1.33756514e+04 -3.26057207e+04
      2.68933320e+04 1.42584072e+04 2.07769043e+04 2.30348496e+04
      -2.49009023e+04 -1.37352197e+04 2.89316846e+03 1.02656367e+04
      1.98446289e+04 -6.99822266e+03 -1.02045977e+04 -3.39425273e+04
      2.56529248e+03 1.76142676e+04 -3.44935742e+04 2.95371152e+04
      -1.38729180e+04 -4.37757188e+04 2.15347441e+04 1.38389294e+03
      3.68595068e+03 2.27959082e+04 -4.65266455e+03 -2.14934424e+03
      -4.46176328e+04 1.92628574e+04 5.14828750e+04 -1.92043691e+04
      -2.28222637e+04 2.31493506e+03 3.09722891e+04 -1.36309600e+04
      3.45659546e+03 1.41224863e+04 1.50331221e+04 -1.63895020e+04
      2.12125366e+03 -2.98890723e+04 3.35876758e+03 1.18061836e+04
      -1.03599268e+04 -5.12148398e+04 -2.01820566e+04 -2.80700430e+04
      -1.87658945e+04 -2.56939395e+04 2.57783359e+04 2.84344570e+04
      -3.24768574e+04 2.77220977e+04 -4.45411797e+04 1.46478662e+04
      2.90864766e+04 7.45049854e+03 2.22726328e+04 -2.62691895e+04
      4.38907861e+03 5.20670039e+04 -1.00487671e+03 2.83223398e+04
      -3.44708516e+04 -4.52376211e+04 1.56480293e+04 9.51782617e+03
      1.93713223e+04 2.61178496e+04 -2.68915586e+04 1.97145625e+04
      2.88827734e+04 -1.02770325e+03 1.33903066e+04 -2.93545825e+03
      2.07640293e+04 -3.89646606e+03 -7.21672949e+03 3.75883320e+04
      2.89054609e+04 2.86168906e+04 2.09959277e+04 2.90828247e+03
      -2.29637812e+04 -2.77791719e+04 -1.17169170e+04 -1.03480969e+03
      -1.24578340e+04 1.12666836e+04 -1.90534326e+03 -2.07710566e+04
      -4.74940186e+03 -9.70179297e+03 2.78717148e+04 7.18758740e+03
      -2.19259805e+04 -2.86429512e+04 -7.39979736e+02 -2.58296367e+04
      -1.58946055e+04 -2.14943281e+04 -3.98238906e+04 4.12614297e+04
      2.86410801e+04 -1.33562285e+04 -2.32836465e+04 7.13173535e+03
      -1.45397588e+04 -2.86447852e+03 -1.27739990e+04 2.56750391e+04
      1.99541035e+04 -2.10208105e+04 1.68759414e+04 2.42434102e+04
      -4.66936875e+04 2.19405781e+04 -5.08679297e+04 -7.34886914e+03
      -7.43571826e+03 3.09621758e+04 1.45805918e+04 -3.96987695e+04
      4.16176445e+04 -9.86396484e+03 1.80493457e+04 3.27120039e+04
      2.31755508e+04 -5.42733477e+04 2.21237500e+03 3.36196133e+04
      8.22886597e+02 -3.28419604e+03 2.13433770e+04 -5.60627617e+04
      2.80604961e+04 3.91330176e+03 -4.32730566e+03 2.15272070e+04
      -1.23536172e+04 4.56508477e+04 -3.02229707e+04 -7.28669873e+03
      -2.50161792e+03 1.41764771e+02 2.03545059e+04 -4.89329922e+04
      -2.12695020e+04 -1.01914502e+04 -5.04687383e+04 2.21950820e+04
      -3.08158813e+02 2.84291465e+04 -2.66386113e+04 -3.19354473e+04
      -1.20227715e+04 -4.32397227e+04 1.35561621e+04 -1.20406653e+03
      2.50351680e+04 3.41268164e+04 1.91611406e+04 -1.63598223e+04
      3.63032852e+04 9.80077539e+03 8.29532422e+03 -1.62517246e+04
      8.57372656e+03 -2.59023418e+04 2.51265938e+04 1.74418535e+04
      9.40968555e+03 1.99040898e+04 4.90214961e+04 -5.23753750e+04
      -1.25232153e+03 2.83469258e+04 -2.53062207e+04 3.43872305e+04
      2.22728496e+04 1.63595479e+04 -4.59597539e+04 2.00431934e+04
      1.63023789e+04 -3.57658711e+04 -2.95923203e+04 4.56995273e+04
      2.89546211e+04 -1.89532676e+04 2.10925293e+03 2.32390527e+04
      6.98550000e+03 -2.07394684e+02 9.33708789e+03 -4.63754648e+04
      7.68880664e+03 6.95143750e+03 -2.94549473e+04 5.57204883e+04
      -3.36433008e+04 2.68262773e+04 1.78048418e+04 -1.33967617e+04
      6.85807910e+03 -3.75611602e+04 -1.08202529e+04 1.21905488e+04
      -3.08158813e+02 -2.35829414e+04 -1.23805859e+04 -3.84156133e+04
      -4.62802109e+04 3.11946719e+04 2.79675703e+04 -2.86447852e+03
      -1.50182979e+04 -1.14744688e+04 2.31245020e+04</_>
    <_>
      -2.10495098e+04 -2.89179746e+04 1.21963766e+05 1.49152119e+04
      1.94372485e+03 1.32250422e+05 -2.68203125e+04 -1.85240059e+04
      1.30418391e+05 -5.10875195e+04 -1.37144141e+04 1.91479707e+04
      -6.06173594e+04 -1.20640596e+04 -3.77916953e+04 -4.84662646e+03
      6.77219453e+04 -1.51016475e+04 8.17786523e+03 -9.65780664e+03
      6.10824844e+04 -6.75453906e+04 2.12769019e+03 5.09708203e+04
      2.72424570e+04 -2.80678887e+04 -1.17319250e+05 -2.26256094e+04
      -1.74937461e+04 -2.93795469e+04 -2.37225586e+03 -1.08795164e+05
      -1.22739785e+04 -3.20277480e+04 -2.25268262e+04 -8.57709277e+03
      -1.48807070e+04 5.96270312e+03 5.71929023e+04 -9.00723672e+04
      -2.48041992e+04 3.91180469e+04 1.45985344e+05 -2.41521211e+04
      -2.03384883e+04 -2.06068594e+04 -5.09082617e+04 -4.57889844e+04
      -2.31617012e+04 -1.11014961e+04 -5.25446523e+04 -9.37205811e+01
      -9.64066797e+03 -2.03735938e+04 -2.38950957e+04 1.55788496e+04
      8.34091016e+04 -1.88492207e+04 -2.16778320e+04 1.40326641e+05
      -1.13303711e+04 6.52867773e+04 -8.60435938e+04 9.93334688e+04
      -3.34370752e+03 1.47481266e+05 -1.97075723e+04 -8.47888477e+03
      -8.87291797e+03 -8.58847188e+04 -3.06182559e+04 -2.21161074e+04
      1.46782953e+05 -3.11109253e+03 8.02113359e+04 -1.40083438e+04
      -3.15646348e+04 6.46856506e+02 3.10918770e+04 -2.85843691e+04
      -1.19242637e+04 4.48669336e+04 -1.84277109e+04 1.02451039e+05
      1.16219594e+05 -3.13435137e+04 1.42940125e+05 -7.82885000e+04
      -1.14657461e+04 3.86719258e+04 -4.95112344e+04 -3.34158164e+04
      1.08028070e+05 8.07931562e+04 -5.48160586e+04 9.49839531e+04
      5.68791055e+04 4.55970586e+04 4.59833594e+03 2.55645703e+03
      4.06011406e+04 -6.11590186e+03 -6.79461797e+04 -4.38931328e+04
      2.32047681e+03 1.02649866e+03 1.57663232e+03 5.55888125e+04
      9.57190781e+04 3.58500039e+04 9.50341250e+04 -2.10886602e+04
      8.46471484e+04 -1.30566191e+04 -1.00697021e+03 -9.46717383e+03
      -3.01236777e+04 -3.96415039e+03 -7.34355859e+03 1.39545562e+05
      -2.65672266e+04 -1.76247031e+04 1.40901312e+05 -3.65654570e+04
      -2.87659707e+04 -7.36446582e+03 -1.14977295e+04 -2.38726699e+04
      -4.09053857e+03 -2.08271094e+04 -8.44507324e+03 1.64512832e+04
      4.38312188e+04 -5.35691719e+04 -3.67219180e+04 1.10710188e+05
      -4.55048359e+04 -1.92703164e+04 -2.43053438e+04 -6.44900586e+04
      -2.20424023e+04 -2.97267930e+04 -4.36285492e+02 -2.09874121e+04
      5.98730195e+04 -6.60879531e+04 1.34630205e+04 -6.06686367e+04
      -2.40506055e+04 -7.62593281e+04 1.75891094e+04 -9.65657227e+03
      -1.86559199e+04 -1.94742285e+04 -2.20696465e+04 -1.17192646e+04
      -2.78077578e+04 6.81855234e+04 -52881. -6.92196094e+03
      -1.73748965e+04 -5.86728125e+04 -6.01390586e+04 -7.51658984e+03
      -1.68776895e+04 -2.15754219e+04 -3.17819277e+04 -2.24998691e+04
      -2.82147188e+04 -2.11218242e+04 -2.00164082e+04 5.23072305e+04
      -3.06343574e+04 -5.78696436e+03 -8.98265332e+03 -1.89699561e+03
      -9.89544824e+03 -1.91693496e+04 -6.48666250e+04 3.75961353e+03
      -4.59511133e+04 -4.66211953e+04 -1.66786230e+04 -1.33613766e+05
      -1.56545049e+04 -5.89446992e+04 -1.77513047e+04 -4.38379346e+03
      1.27998383e+05 2.72058457e+04 2.32530293e+04 -5.59826992e+04
      -2.49046172e+04 -1.35292354e+04 -1.53924941e+04 -1.20599292e+03
      1.00343500e+05 -1.70544512e+04 -4.49377383e+04 -2.82309180e+04
      2.84248418e+04 -2.16585352e+03 -9.33156094e+04 4.80835508e+04
      5.26072266e+04 8.46112812e+04 -4.96758398e+04 -1.30460664e+04
      3.73681680e+04 -1.09221836e+04 -2.06068594e+04 -3.66628203e+04
      -1.32677158e+04 -1.64772246e+04 2.81213242e+04 -3.80437266e+04
      -8.89427344e+03 -7.92203438e+04 -2.45040601e+03 -4.51881484e+04
      2.06596855e+04 2.59830898e+04 9.96835000e+04 -7.11723750e+04
      -9.48432129e+03 6.80692480e+03 -6.17422070e+03 -2.07517715e+04
      -1.61851494e+04 1.36025547e+05 6.85245605e+02 -1.41688066e+04
      -3.32876211e+04 2.82641270e+04 5.10686797e+04 1.67785273e+04
      -8.15379272e+02 -3.32962695e+04 -2.57837461e+04 -1.91129473e+04
      -1.03085000e+04 7.27176016e+04 -3.69839102e+04 8.61315391e+04
      1.41500812e+05 -1.26625625e+04 4.34920547e+04 4.13784883e+04
      -2.43143008e+04 -1.93957227e+04 -1.20581572e+04 -5.22737617e+04
      -2.25749199e+04 6.74884033e+03 3.15267461e+04 2.57775488e+04
      2.84248418e+04 -1.23576945e+05 6.38014141e+04 -6.78616172e+04
      -5.70722109e+04 -3.75753281e+04 3.41275703e+04 6.81855234e+04
      9.30702393e+02 1.49945312e+04 -2.80449829e+03</_>
    <_>
      3.65224922e+04 -1.15709736e+04 -7.47423584e+03 -3.71517891e+04
      2.51647246e+04 2.94841772e+03 2.60576875e+04 -2.25050059e+04
      3.52938818e+03 9.20247949e+03 -5.22041406e+03 1.35939697e+04
      -1.80673574e+04 3.04619395e+04 7.81330615e+03 -2.23696270e+04
      -1.70460566e+04 1.07013525e+04 -3.45641328e+04 3.35211914e+04
      -5.08405156e+04 -1.96703945e+04 2.23106895e+04 -3.20781797e+04
      3.87424570e+04 2.08971113e+04 -2.61442480e+04 1.87003906e+04
      6.37325391e+03 2.79584531e+04 1.89097441e+04 -2.75671680e+04
      -5.89978333e+02 4.79025098e+03 2.90317407e+03 2.36549062e+04
      2.88252930e+04 2.83767031e+04 -6.65809766e+03 -2.80183711e+04
      2.21298008e+04 -2.23409512e+04 7.99433691e+03 -2.58681211e+04
      2.61585117e+04 1.86981406e+04 -5.28932617e+04 4.82801416e+03
      -2.08587012e+04 -1.67674961e+04 -9.52465137e+03 -3.11927207e+04
      2.16223320e+04 1.11304062e+04 1.84919043e+04 1.75298496e+04
      -2.27859023e+04 -1.13132197e+04 5.46316846e+03 6.35663672e+03
      2.10106289e+04 -1.67172227e+04 -5.94559717e+03 -3.60345273e+04
      6.86292419e+02 1.06402676e+04 -1.28535723e+04 2.64181152e+04
      -1.34409180e+04 -2.57367168e+04 1.74197441e+04 4.64389307e+03
      -2.44704932e+03 2.61599082e+04 -1.24076641e+04 5.25655823e+02
      -4.45016328e+04 1.68788574e+04 3.75628750e+04 -2.10503691e+04
      -1.33152637e+04 -1.40710645e+04 2.77662891e+04 -1.24139600e+04
      -3.91540454e+03 1.10644863e+04 7.80312256e+03 -9.30550195e+03
      3.87925366e+03 -2.64520723e+04 -6.07623242e+03 1.32061836e+04
      -7.45192676e+03 -4.87188398e+04 -1.46850566e+04 -3.26200430e+04
      -2.15508945e+04 -2.83309395e+04 2.43703359e+04 2.68924570e+04
      -3.17518574e+04 2.69790977e+04 -3.81161797e+04 9.69186621e+03
      2.84354766e+04 6.76249854e+03 2.18676328e+04 -2.65351895e+04
      9.34078796e+02 3.16190020e+04 -6.84987695e+03 2.76843398e+04
      -3.39738516e+04 -3.03236191e+04 1.61180293e+04 1.10628262e+04
      2.42293223e+04 2.56598496e+04 -2.10885586e+04 8.51856348e+03
      2.54317734e+04 -1.92703262e+02 9.30230664e+03 -5.58045801e+03
      1.45660293e+04 -6.41946582e+03 -8.01272949e+03 3.44903320e+04
      2.46824609e+04 3.04328906e+04 1.70159258e+04 1.79528259e+03
      -2.37347812e+04 -2.30231719e+04 -1.43229170e+04 -2.68980981e+03
      -1.29188340e+04 1.05886836e+04 -2.90343231e+02 -2.19570566e+04
      -7.71140186e+03 -9.96579297e+03 2.44607148e+04 4.76258740e+03
      -2.92419805e+04 -1.95029512e+04 -4.54297998e+03 -1.94496367e+04
      -9.38360547e+03 -1.60863291e+04 -3.29488906e+04 4.05704297e+04
      2.71090801e+04 -1.59542285e+04 -1.63576475e+04 4.72973535e+03
      -1.64007578e+04 -1.14884785e+04 -1.50269980e+04 2.19880391e+04
      1.60111035e+04 -1.81308105e+04 2.14719414e+04 2.32144102e+04
      -3.69136875e+04 2.34815781e+04 -4.78519297e+04 -7.12286914e+03
      -8.00071826e+03 2.92091758e+04 1.33085918e+04 -3.45647695e+04
      3.76586445e+04 -8.15996436e+03 1.50573467e+04 2.81830039e+04
      2.17785508e+04 -4.33093477e+04 4.10337500e+03 3.16906133e+04
      -6.35111328e+03 9.07803894e+02 2.00683770e+04 -4.09447617e+04
      2.32204961e+04 2.00130176e+03 -2.94630542e+03 2.02512070e+04
      -1.62886172e+04 3.72118477e+04 -2.48339707e+04 -7.07569873e+03
      -3.82161792e+03 1.31276477e+03 1.78415059e+04 -4.37079922e+04
      -2.83405020e+04 -1.36764502e+04 -3.22877363e+04 1.58170820e+04
      -7.79515869e+03 2.67971465e+04 -1.24386104e+04 -3.11754473e+04
      -1.33577715e+04 -4.38437227e+04 1.16321621e+04 -4.04306641e+03
      2.72621680e+04 3.44358164e+04 1.86981406e+04 -1.12498223e+04
